<?xml version="1.0"?>
<opencv_storage>
<my_svm type_id="opencv-ml-svm">
  <svm_type>EPS_SVR</svm_type>
  <kernel><type>RBF</type>
    <gamma>1.0000000000000001e-001</gamma></kernel>
  <C>5.</C>
  <p>1.0000000000000000e-003</p>
  <term_criteria><epsilon>1.1920928955078125e-007</epsilon>
    <iterations>1000</iterations></term_criteria>
  <var_all>3</var_all>
  <var_count>3</var_count>
  <sv_total>1608</sv_total>
  <support_vectors>
    <_>
      149. 2.77694000e+002 2.16475000e+004</_>
    <_>
      17. 8.25577026e+002 1574.</_>
    <_>
      125. 2.86190002e+002 2.17235000e+004</_>
    <_>
      7. 7.96924988e+002 824.</_>
    <_>
      200. 2.96933014e+002 2.56165000e+004</_>
    <_>
      22. 7.87200012e+002 2675.</_>
    <_>
      182. 2.97881012e+002 2.55475000e+004</_>
    <_>
      197. 3.02497986e+002 25832.</_>
    <_>
      234. 3.07143005e+002 31761.</_>
    <_>
      19. 7.89078979e+002 2524.</_>
    <_>
      210. 3.13177002e+002 2.70985000e+004</_>
    <_>
      200. 3.18022003e+002 26586.</_>
    <_>
      201. 3.17165985e+002 28188.</_>
    <_>
      197. 3.24679993e+002 30042.</_>
    <_>
      202. 3.26957001e+002 27898.</_>
    <_>
      6. 1.31684998e+002 220.</_>
    <_>
      226. 3.36953003e+002 27783.</_>
    <_>
      15. 7.77767029e+002 769.</_>
    <_>
      12. 1.46697006e+002 8.43500000e+002</_>
    <_>
      199. 3.45584991e+002 26876.</_>
    <_>
      23. 1.95020996e+002 2336.</_>
    <_>
      185. 3.54683014e+002 25550.</_>
    <_>
      33. 1.97772995e+002 3.67950000e+003</_>
    <_>
      243. 3.48742004e+002 28230.</_>
    <_>
      28. 7.40427979e+002 4042.</_>
    <_>
      49. 1.98494003e+002 5.52750000e+003</_>
    <_>
      178. 3.59723999e+002 23299.</_>
    <_>
      61. 2.03806000e+002 6543.</_>
    <_>
      8. 7.53049988e+002 3.21500000e+002</_>
    <_>
      238. 3.28585999e+002 5.18865000e+004</_>
    <_>
      299. 3.37855011e+002 48854.</_>
    <_>
      33. 7.16950012e+002 4497.</_>
    <_>
      251. 3.26532990e+002 51434.</_>
    <_>
      242. 3.27230988e+002 4.88905000e+004</_>
    <_>
      264. 3.44075989e+002 5.45285000e+004</_>
    <_>
      98. 2.53061005e+002 1.34805000e+004</_>
    <_>
      8. 7.24721008e+002 165.</_>
    <_>
      125. 2.44518005e+002 1.77895000e+004</_>
    <_>
      10. 7.28770020e+002 6.33500000e+002</_>
    <_>
      366. 3.38395996e+002 6.46235000e+004</_>
    <_>
      25. 7.26179016e+002 1.96450000e+003</_>
    <_>
      155. 2.66923004e+002 21852.</_>
    <_>
      277. 3.35815002e+002 59169.</_>
    <_>
      122. 4.40729004e+002 1.87925000e+004</_>
    <_>
      168. 2.72610992e+002 26386.</_>
    <_>
      358. 3.50294006e+002 5.98295000e+004</_>
    <_>
      18. 7.03945984e+002 1353.</_>
    <_>
      304. 3.46699005e+002 5.75805000e+004</_>
    <_>
      9. 6.99755981e+002 3.65500000e+002</_>
    <_>
      315. 3.34963989e+002 57257.</_>
    <_>
      8. 6.90427002e+002 2.35500000e+002</_>
    <_>
      264. 3.28320007e+002 43243.</_>
    <_>
      53. 5.17630005e+002 6.56450000e+003</_>
    <_>
      400. 3.58744995e+002 6.22625000e+004</_>
    <_>
      19. 6.86685974e+002 1155.</_>
    <_>
      346. 3.51411011e+002 6.24465000e+004</_>
    <_>
      7. 6.79388977e+002 551.</_>
    <_>
      127. 3.91281006e+002 1.87095000e+004</_>
    <_>
      47. 5.40374023e+002 5233.</_>
    <_>
      9. 6.79476990e+002 2.77500000e+002</_>
    <_>
      217. 2.95625000e+002 31678.</_>
    <_>
      53. 5.37247009e+002 6.79750000e+003</_>
    <_>
      8. 2.86028015e+002 5.21500000e+002</_>
    <_>
      55. 4.52372986e+002 5.95050000e+003</_>
    <_>
      426. 3.73020996e+002 6.57595000e+004</_>
    <_>
      15. 6.74046997e+002 8.98500000e+002</_>
    <_>
      166. 4.53963013e+002 33503.</_>
    <_>
      17. 6.66629028e+002 1026.</_>
    <_>
      313. 3.66399994e+002 5.80945000e+004</_>
    <_>
      8. 6.55405029e+002 416.</_>
    <_>
      157. 4.85868988e+002 2.83685000e+004</_>
    <_>
      157. 4.85207001e+002 2.99795000e+004</_>
    <_>
      340. 3.97045013e+002 6.81645000e+004</_>
    <_>
      191. 4.87627991e+002 3.67525000e+004</_>
    <_>
      456. 4.04250000e+002 7.17045000e+004</_>
    <_>
      211. 3.37854004e+002 35374.</_>
    <_>
      121. 5.68869995e+002 15412.</_>
    <_>
      31. 2.81602997e+002 2.98550000e+003</_>
    <_>
      354. 3.94867004e+002 66224.</_>
    <_>
      197. 5.08272003e+002 32024.</_>
    <_>
      177. 3.14854004e+002 2.87735000e+004</_>
    <_>
      377. 4.12820007e+002 65953.</_>
    <_>
      56. 4.39841003e+002 6171.</_>
    <_>
      108. 5.76754028e+002 1.45835000e+004</_>
    <_>
      206. 3.14884003e+002 3.06965000e+004</_>
    <_>
      179. 3.48278992e+002 2.82575000e+004</_>
    <_>
      118. 5.75684021e+002 14340.</_>
    <_>
      53. 2.91649994e+002 5403.</_>
    <_>
      402. 4.48325989e+002 59491.</_>
    <_>
      69. 2.95169006e+002 6.74950000e+003</_>
    <_>
      295. 4.50471985e+002 52278.</_>
    <_>
      69. 2.90842010e+002 7297.</_>
    <_>
      37. 6.39252991e+002 4550.</_>
    <_>
      69. 2.91247009e+002 6494.</_>
    <_>
      471. 4.40148010e+002 78131.</_>
    <_>
      115. 5.49932983e+002 2.11485000e+004</_>
    <_>
      408. 4.49799988e+002 6.99615000e+004</_>
    <_>
      147. 3.95296997e+002 2.54795000e+004</_>
    <_>
      109. 5.97101013e+002 1.76395000e+004</_>
    <_>
      43. 3.22869995e+002 6.31250000e+003</_>
    <_>
      144. 4.04949005e+002 2.48025000e+004</_>
    <_>
      103. 6.16202026e+002 16276.</_>
    <_>
      51. 3.22220001e+002 4775.</_>
    <_>
      11. 1.97018005e+002 549.</_>
    <_>
      89. 6.24802002e+002 15140.</_>
    <_>
      26. 4.83869995e+002 3361.</_>
    <_>
      46. 3.31846008e+002 5.46150000e+003</_>
    <_>
      19. 2.04298996e+002 1237.</_>
    <_>
      144. 5.90815979e+002 27101.</_>
    <_>
      40. 3.32231995e+002 4585.</_>
    <_>
      27. 1.84296005e+002 2.34250000e+003</_>
    <_>
      417. 4.78106995e+002 68743.</_>
    <_>
      29. 1.98667999e+002 3633.</_>
    <_>
      126. 4.13424988e+002 20481.</_>
    <_>
      57. 1.95921005e+002 5563.</_>
    <_>
      20. 5.48830994e+002 1691.</_>
    <_>
      40. 3.48890991e+002 3092.</_>
    <_>
      8. 7.06283020e+002 138.</_>
    <_>
      132. 3.90825012e+002 23010.</_>
    <_>
      56. 2.04475006e+002 5629.</_>
    <_>
      21. 5.01009003e+002 2.01250000e+003</_>
    <_>
      416. 5.01143005e+002 64653.</_>
    <_>
      70. 2.07162003e+002 8.59150000e+003</_>
    <_>
      161. 4.60391998e+002 26832.</_>
    <_>
      60. 2.22427994e+002 7.35350000e+003</_>
    <_>
      32. 3.58825989e+002 3395.</_>
    <_>
      33. 7.06770996e+002 4.71450000e+003</_>
    <_>
      83. 2.25410995e+002 8.71150000e+003</_>
    <_>
      14. 5.43968018e+002 4.80500000e+002</_>
    <_>
      25. 3.79579010e+002 2256.</_>
    <_>
      29. 5.32219971e+002 4.77750000e+003</_>
    <_>
      7. 6.39466003e+002 3.92500000e+002</_>
    <_>
      9. 6.29447998e+002 431.</_>
    <_>
      391. 5.19864990e+002 60950.</_>
    <_>
      88. 2.26921005e+002 10318.</_>
    <_>
      146. 4.84190002e+002 2.58945000e+004</_>
    <_>
      87. 2.35304001e+002 1.09935000e+004</_>
    <_>
      40. 3.86048004e+002 3.85850000e+003</_>
    <_>
      153. 4.79826996e+002 29067.</_>
    <_>
      101. 2.42244003e+002 1.36985000e+004</_>
    <_>
      43. 3.85540985e+002 3.50950000e+003</_>
    <_>
      396. 5.31806030e+002 62079.</_>
    <_>
      123. 2.42865997e+002 1.60255000e+004</_>
    <_>
      113. 4.34557007e+002 1.62195000e+004</_>
    <_>
      131. 2.40684006e+002 19563.</_>
    <_>
      54. 5.34479004e+002 9223.</_>
    <_>
      20. 7.44822998e+002 2.51050000e+003</_>
    <_>
      37. 6.52614990e+002 3.47550000e+003</_>
    <_>
      287. 4.73058990e+002 3.48335000e+004</_>
    <_>
      146. 2.40759003e+002 20358.</_>
    <_>
      176. 4.79417999e+002 31694.</_>
    <_>
      146. 2.52809998e+002 1.98325000e+004</_>
    <_>
      18. 7.65419006e+002 1446.</_>
    <_>
      9. 6.99120972e+002 1280.</_>
    <_>
      7. 5.90041016e+002 4.57500000e+002</_>
    <_>
      126. 4.70226990e+002 26284.</_>
    <_>
      241. 4.99417999e+002 3.38675000e+004</_>
    <_>
      195. 5.03746002e+002 28768.</_>
    <_>
      36. 7.10135986e+002 5391.</_>
    <_>
      6. 7.90098999e+002 279.</_>
    <_>
      244. 3.20631989e+002 4.55925000e+004</_>
    <_>
      112. 5.34453003e+002 18082.</_>
    <_>
      7. 7.93960022e+002 310.</_>
    <_>
      27. 6.93377991e+002 3123.</_>
    <_>
      217. 5.14731995e+002 28423.</_>
    <_>
      127. 5.10295013e+002 2.49425000e+004</_>
    <_>
      183. 5.16143982e+002 27959.</_>
    <_>
      580. 4.53269012e+002 110578.</_>
    <_>
      206. 2.91194000e+002 3.39095000e+004</_>
    <_>
      26. 6.32143005e+002 3249.</_>
    <_>
      22. 4.47699005e+002 4.43650000e+003</_>
    <_>
      10. 4.88058014e+002 604.</_>
    <_>
      241. 3.05949005e+002 44695.</_>
    <_>
      99. 5.64578979e+002 17187.</_>
    <_>
      40. 7.50307007e+002 6707.</_>
    <_>
      625. 4.61897003e+002 110263.</_>
    <_>
      380. 3.70407013e+002 75747.</_>
    <_>
      9. 7.99880005e+002 1.63150000e+003</_>
    <_>
      13. 7.38645020e+002 1351.</_>
    <_>
      345. 3.33419006e+002 53231.</_>
    <_>
      273. 6.49344971e+002 39188.</_>
    <_>
      283. 3.25300995e+002 39723.</_>
    <_>
      92. 5.54260986e+002 10979.</_>
    <_>
      37. 6.51780029e+002 4556.</_>
    <_>
      344. 3.32554993e+002 4.75585000e+004</_>
    <_>
      282. 6.50481018e+002 4.20755000e+004</_>
    <_>
      599. 4.74658997e+002 102607.</_>
    <_>
      109. 6.03244995e+002 1.64505000e+004</_>
    <_>
      265. 3.43169006e+002 3.97845000e+004</_>
    <_>
      28. 7.71888977e+002 3899.</_>
    <_>
      94. 5.63169983e+002 12649.</_>
    <_>
      254. 3.45773987e+002 4.06205000e+004</_>
    <_>
      38. 6.68870972e+002 4.52650000e+003</_>
    <_>
      24. 7.76640015e+002 2815.</_>
    <_>
      246. 3.49756989e+002 38006.</_>
    <_>
      117. 5.93401001e+002 2.33165000e+004</_>
    <_>
      13. 7.85398987e+002 1.10550000e+003</_>
    <_>
      342. 3.55286987e+002 40947.</_>
    <_>
      269. 6.63723999e+002 40732.</_>
    <_>
      258. 3.59183990e+002 38635.</_>
    <_>
      128. 6.04427979e+002 22107.</_>
    <_>
      24. 8.09021973e+002 3356.</_>
    <_>
      491. 4.55377014e+002 7.86695000e+004</_>
    <_>
      67. 8.09208008e+002 7243.</_>
    <_>
      237. 3.69446014e+002 3.46495000e+004</_>
    <_>
      36. 5.51754028e+002 5.54150000e+003</_>
    <_>
      55. 7.73633972e+002 1.14485000e+004</_>
    <_>
      36. 6.30179016e+002 5544.</_>
    <_>
      13. 2.79946014e+002 1414.</_>
    <_>
      202. 3.78803009e+002 32663.</_>
    <_>
      22. 2.91548004e+002 2119.</_>
    <_>
      16. 8.02244995e+002 1.37750000e+003</_>
    <_>
      70. 6.02000977e+002 1.59015000e+004</_>
    <_>
      19. 7.21552002e+002 2555.</_>
    <_>
      296. 3.83450012e+002 37477.</_>
    <_>
      143. 6.09200012e+002 1.70285000e+004</_>
    <_>
      30. 2.92351013e+002 3.11150000e+003</_>
    <_>
      295. 4.48360992e+002 63124.</_>
    <_>
      32. 2.80018005e+002 3.45750000e+003</_>
    <_>
      34. 7.14849976e+002 4.43550000e+003</_>
    <_>
      24. 8.09021973e+002 1.86850000e+003</_>
    <_>
      263. 4.11299988e+002 4.65265000e+004</_>
    <_>
      70. 6.62669006e+002 12446.</_>
    <_>
      48. 2.73403015e+002 3802.</_>
    <_>
      6. 8.11659973e+002 2.39500000e+002</_>
    <_>
      530. 5.21828979e+002 8.88555000e+004</_>
    <_>
      67. 2.62427002e+002 7926.</_>
    <_>
      61. 6.32737976e+002 1.15325000e+004</_>
    <_>
      220. 4.00911011e+002 30820.</_>
    <_>
      10. 7.68846985e+002 1477.</_>
    <_>
      47. 2.82661011e+002 7024.</_>
    <_>
      13. 8.19531982e+002 1513.</_>
    <_>
      14. 1.88246994e+002 1.11350000e+003</_>
    <_>
      568. 4.73897003e+002 107457.</_>
    <_>
      329. 3.85032013e+002 63865.</_>
    <_>
      13. 8.31125000e+002 1494.</_>
    <_>
      440. 5.53637024e+002 7.99235000e+004</_>
    <_>
      106. 2.91894012e+002 16783.</_>
    <_>
      438. 5.52393005e+002 69968.</_>
    <_>
      127. 2.95601013e+002 17552.</_>
    <_>
      96. 6.75369995e+002 1.70235000e+004</_>
    <_>
      104. 2.94089996e+002 1.73795000e+004</_>
    <_>
      152. 4.39877014e+002 2.35765000e+004</_>
    <_>
      372. 3.79803009e+002 6.59195000e+004</_>
    <_>
      176. 7.00164001e+002 2.61525000e+004</_>
    <_>
      164. 4.53981995e+002 2.62505000e+004</_>
    <_>
      7. 7.88432007e+002 6.56500000e+002</_>
    <_>
      32. 3.35440002e+002 4103.</_>
    <_>
      103. 2.77704987e+002 14779.</_>
    <_>
      163. 4.61036011e+002 2.52295000e+004</_>
    <_>
      49. 6.98114990e+002 7.82350000e+003</_>
    <_>
      12. 7.95296997e+002 1.05450000e+003</_>
    <_>
      12. 6.29229980e+002 1096.</_>
    <_>
      141. 2.83782013e+002 1.63665000e+004</_>
    <_>
      42. 3.46559998e+002 3748.</_>
    <_>
      242. 4.65295990e+002 2.81595000e+004</_>
    <_>
      132. 6.90081970e+002 14071.</_>
    <_>
      26. 7.98250977e+002 2.87450000e+003</_>
    <_>
      169. 2.90704010e+002 24994.</_>
    <_>
      89. 4.28878998e+002 10924.</_>
    <_>
      65. 7.14646973e+002 11015.</_>
    <_>
      54. 5.14840027e+002 8.60050000e+003</_>
    <_>
      142. 2.83656006e+002 25449.</_>
    <_>
      65. 7.02684021e+002 8371.</_>
    <_>
      140. 4.81813995e+002 22903.</_>
    <_>
      137. 2.97321014e+002 2.38645000e+004</_>
    <_>
      45. 7.10177979e+002 8.18250000e+003</_>
    <_>
      146. 4.89388000e+002 2.96465000e+004</_>
    <_>
      10. 8.00353027e+002 1105.</_>
    <_>
      273. 4.69571991e+002 3.25555000e+004</_>
    <_>
      163. 7.33502014e+002 21020.</_>
    <_>
      307. 3.73048004e+002 7.02645000e+004</_>
    <_>
      72. 7.09171997e+002 10342.</_>
    <_>
      32. 3.90514008e+002 2.80850000e+003</_>
    <_>
      74. 7.19791992e+002 1.10435000e+004</_>
    <_>
      258. 4.89565002e+002 3.13785000e+004</_>
    <_>
      179. 2.83134003e+002 21035.</_>
    <_>
      142. 7.43791016e+002 17946.</_>
    <_>
      188. 4.88250000e+002 30477.</_>
    <_>
      51. 7.19851013e+002 1.18595000e+004</_>
    <_>
      17. 8.24700989e+002 1.99150000e+003</_>
    <_>
      257. 5.00468994e+002 3.07195000e+004</_>
    <_>
      158. 2.90993011e+002 2.22195000e+004</_>
    <_>
      158. 7.53232971e+002 1.77405000e+004</_>
    <_>
      28. 4.25640015e+002 2.97450000e+003</_>
    <_>
      137. 3.05026001e+002 1.55085000e+004</_>
    <_>
      96. 5.29135986e+002 1.49345000e+004</_>
    <_>
      55. 7.63534973e+002 8.66350000e+003</_>
    <_>
      6. 4.85411987e+002 220.</_>
    <_>
      254. 5.12411011e+002 2.81765000e+004</_>
    <_>
      154. 3.05144012e+002 18487.</_>
    <_>
      157. 7.59263000e+002 1.71605000e+004</_>
    <_>
      45. 5.76250977e+002 7.78450000e+003</_>
    <_>
      67. 7.50695984e+002 1.14885000e+004</_>
    <_>
      69. 4.75888000e+002 1.18225000e+004</_>
    <_>
      127. 5.23927002e+002 25404.</_>
    <_>
      44. 7.44221008e+002 8.66950000e+003</_>
    <_>
      7. 2.09160004e+002 269.</_>
    <_>
      204. 5.35075989e+002 2.68275000e+004</_>
    <_>
      135. 7.69914978e+002 1.53015000e+004</_>
    <_>
      9. 1.55912994e+002 7.75500000e+002</_>
    <_>
      6. 2.09619003e+002 328.</_>
    <_>
      33. 2.10447006e+002 2863.</_>
    <_>
      127. 5.61151001e+002 17187.</_>
    <_>
      35. 4.44127014e+002 3759.</_>
    <_>
      10. 7.18901978e+002 1.01150000e+003</_>
    <_>
      11. 3.20623993e+002 6.51500000e+002</_>
    <_>
      12. 7.88893005e+002 1.02950000e+003</_>
    <_>
      35. 2.14574005e+002 3.59950000e+003</_>
    <_>
      134. 5.31614014e+002 22773.</_>
    <_>
      31. 7.25568970e+002 3364.</_>
    <_>
      14. 7.80007996e+002 2341.</_>
    <_>
      234. 5.43260986e+002 28064.</_>
    <_>
      126. 7.75604004e+002 1.25915000e+004</_>
    <_>
      42. 2.06320007e+002 4936.</_>
    <_>
      12. 3.21622009e+002 435.</_>
    <_>
      18. 8.07002014e+002 3.62250000e+003</_>
    <_>
      48. 2.49272995e+002 6812.</_>
    <_>
      112. 5.45671021e+002 2.23755000e+004</_>
    <_>
      76. 2.50667007e+002 10885.</_>
    <_>
      123. 7.77335022e+002 12246.</_>
    <_>
      215. 5.57853027e+002 2.74105000e+004</_>
    <_>
      159. 3.23834991e+002 35367.</_>
    <_>
      104. 5.62554993e+002 20826.</_>
    <_>
      33. 7.67913025e+002 5.21050000e+003</_>
    <_>
      108. 3.62227997e+002 13631.</_>
    <_>
      108. 5.86806030e+002 2.03455000e+004</_>
    <_>
      52. 2.73338989e+002 8.77250000e+003</_>
    <_>
      18. 7.51283020e+002 1.68250000e+003</_>
    <_>
      9. 8.16213989e+002 6.83500000e+002</_>
    <_>
      117. 3.74556000e+002 13249.</_>
    <_>
      120. 5.75445007e+002 2.40135000e+004</_>
    <_>
      64. 2.73907013e+002 12989.</_>
    <_>
      10. 7.56323975e+002 1.54350000e+003</_>
    <_>
      8. 8.13932007e+002 1015.</_>
    <_>
      87. 2.80492004e+002 1.25195000e+004</_>
    <_>
      101. 7.91466003e+002 10267.</_>
    <_>
      227. 5.82640015e+002 2.50515000e+004</_>
    <_>
      107. 5.90403992e+002 1.90825000e+004</_>
    <_>
      64. 2.83670990e+002 1.01525000e+004</_>
    <_>
      26. 7.83711975e+002 3.67750000e+003</_>
    <_>
      96. 5.88013977e+002 18807.</_>
    <_>
      50. 3.04684998e+002 8.49050000e+003</_>
    <_>
      18. 7.69773987e+002 2150.</_>
    <_>
      13. 8.22002014e+002 917.</_>
    <_>
      85. 7.97820007e+002 9083.</_>
    <_>
      213. 3.44605988e+002 37864.</_>
    <_>
      214. 5.99216003e+002 22954.</_>
    <_>
      59. 2.89580994e+002 8.08150000e+003</_>
    <_>
      124. 6.09138977e+002 17713.</_>
    <_>
      56. 3.04546997e+002 1.02245000e+004</_>
    <_>
      10. 7.75104004e+002 921.</_>
    <_>
      97. 5.96806030e+002 1.25535000e+004</_>
    <_>
      10. 6.90293030e+002 562.</_>
    <_>
      8. 8.24679016e+002 3.49500000e+002</_>
    <_>
      76. 3.09769012e+002 9.77650000e+003</_>
    <_>
      70. 8.04249023e+002 7.52450000e+003</_>
    <_>
      215. 6.10799988e+002 22611.</_>
    <_>
      65. 3.09026001e+002 7126.</_>
    <_>
      103. 6.19023010e+002 1.62555000e+004</_>
    <_>
      8. 7.93867004e+002 664.</_>
    <_>
      87. 3.12622986e+002 9.29650000e+003</_>
    <_>
      258. 6.65380005e+002 3.60965000e+004</_>
    <_>
      141. 3.77921997e+002 31264.</_>
    <_>
      52. 3.37912994e+002 7782.</_>
    <_>
      104. 6.22065002e+002 1.82365000e+004</_>
    <_>
      57. 4.21375000e+002 9473.</_>
    <_>
      51. 3.43739990e+002 6.27850000e+003</_>
    <_>
      94. 6.35890015e+002 1.50045000e+004</_>
    <_>
      7. 8.26013000e+002 358.</_>
    <_>
      121. 3.89816986e+002 29088.</_>
    <_>
      103. 6.40487976e+002 1.88375000e+004</_>
    <_>
      75. 4.37440002e+002 12482.</_>
    <_>
      95. 6.39164978e+002 14070.</_>
    <_>
      59. 3.44615997e+002 1.06445000e+004</_>
    <_>
      12. 8.11059021e+002 9.52500000e+002</_>
    <_>
      9. 7.25552002e+002 1.11150000e+003</_>
    <_>
      235. 6.83395020e+002 2.98765000e+004</_>
    <_>
      115. 4.29638000e+002 15978.</_>
    <_>
      67. 3.53503998e+002 9206.</_>
    <_>
      36. 3.63407013e+002 7.71250000e+003</_>
    <_>
      88. 6.78687988e+002 2.36625000e+004</_>
    <_>
      43. 4.44065002e+002 1.06865000e+004</_>
    <_>
      34. 3.67010010e+002 4.39850000e+003</_>
    <_>
      57. 4.56097992e+002 12519.</_>
    <_>
      101. 6.75114990e+002 1.69145000e+004</_>
    <_>
      124. 6.75114990e+002 23056.</_>
    <_>
      93. 4.07540985e+002 2.76765000e+004</_>
    <_>
      6. 4.76681000e+002 121.</_>
    <_>
      167. 4.24548004e+002 32172.</_>
    <_>
      214. 6.92302979e+002 2.76615000e+004</_>
    <_>
      85. 6.81197021e+002 1.61965000e+004</_>
    <_>
      20. 4.12671997e+002 2.00750000e+003</_>
    <_>
      91. 6.85440979e+002 1.68985000e+004</_>
    <_>
      94. 4.51359009e+002 2.75685000e+004</_>
    <_>
      62. 5.03746002e+002 9.99650000e+003</_>
    <_>
      85. 6.67036987e+002 1.57995000e+004</_>
    <_>
      35. 4.05981995e+002 5.92350000e+003</_>
    <_>
      6. 4.87315002e+002 174.</_>
    <_>
      170. 4.43766998e+002 3.13165000e+004</_>
    <_>
      220. 7.07070984e+002 29969.</_>
    <_>
      74. 4.47114990e+002 2.70455000e+004</_>
    <_>
      53. 7.13780029e+002 1.75065000e+004</_>
    <_>
      67. 4.84126007e+002 10655.</_>
    <_>
      11. 4.38553986e+002 896.</_>
    <_>
      17. 3.60321991e+002 2217.</_>
    <_>
      82. 7.06091003e+002 16108.</_>
    <_>
      94. 7.02249023e+002 19647.</_>
    <_>
      32. 4.11752014e+002 4212.</_>
    <_>
      65. 5.00684998e+002 1.32415000e+004</_>
    <_>
      90. 7.00554993e+002 1.74165000e+004</_>
    <_>
      46. 4.05622009e+002 7.02750000e+003</_>
    <_>
      38. 5.06766998e+002 8197.</_>
    <_>
      67. 4.17528015e+002 1.48425000e+004</_>
    <_>
      20. 5.29755005e+002 2605.</_>
    <_>
      63. 7.01307983e+002 14622.</_>
    <_>
      385. 5.87218018e+002 61436.</_>
    <_>
      55. 5.22693970e+002 1.05255000e+004</_>
    <_>
      86. 7.17044983e+002 14361.</_>
    <_>
      31. 4.42799988e+002 4139.</_>
    <_>
      50. 5.22518982e+002 8989.</_>
    <_>
      85. 7.23731018e+002 1.54075000e+004</_>
    <_>
      47. 4.29790985e+002 8.70450000e+003</_>
    <_>
      42. 5.46468994e+002 10962.</_>
    <_>
      41. 4.30743988e+002 9427.</_>
    <_>
      63. 7.25958984e+002 1.30265000e+004</_>
    <_>
      100. 4.80151001e+002 2.54875000e+004</_>
    <_>
      39. 6.99177002e+002 8606.</_>
    <_>
      103. 4.90171997e+002 2.57645000e+004</_>
    <_>
      74. 7.19950989e+002 14450.</_>
    <_>
      94. 5.00345001e+002 24990.</_>
    <_>
      93. 7.28354980e+002 14126.</_>
    <_>
      83. 4.87312012e+002 26721.</_>
    <_>
      58. 7.45224976e+002 12968.</_>
    <_>
      193. 5.02020996e+002 2.76835000e+004</_>
    <_>
      164. 7.49448975e+002 17661.</_>
    <_>
      116. 5.08339996e+002 26912.</_>
    <_>
      46. 7.38677979e+002 1.09435000e+004</_>
    <_>
      114. 4.96372009e+002 25789.</_>
    <_>
      73. 7.53515015e+002 1.40915000e+004</_>
    <_>
      107. 5.09157013e+002 28336.</_>
    <_>
      66. 7.44361023e+002 1.39145000e+004</_>
    <_>
      157. 5.39942993e+002 20165.</_>
    <_>
      13. 5.22044006e+002 674.</_>
    <_>
      150. 7.56997009e+002 17613.</_>
    <_>
      87. 5.37901001e+002 19746.</_>
    <_>
      62. 7.43802002e+002 1.18835000e+004</_>
    <_>
      62. 7.53515015e+002 10974.</_>
    <_>
      71. 5.35859985e+002 21276.</_>
    <_>
      48. 7.63937988e+002 12679.</_>
    <_>
      78. 5.31638977e+002 2.16125000e+004</_>
    <_>
      51. 7.66783020e+002 11810.</_>
    <_>
      92. 5.53177002e+002 21101.</_>
    <_>
      44. 7.64947998e+002 1.04395000e+004</_>
    <_>
      180. 5.57544983e+002 2.47205000e+004</_>
    <_>
      126. 7.78124023e+002 1.27115000e+004</_>
    <_>
      110. 5.53479980e+002 2.37775000e+004</_>
    <_>
      35. 7.65083984e+002 8.80250000e+003</_>
    <_>
      107. 5.61057007e+002 21090.</_>
    <_>
      35. 7.61711975e+002 7865.</_>
    <_>
      177. 5.76932983e+002 27294.</_>
    <_>
      123. 7.84031006e+002 13174.</_>
    <_>
      124. 6.52056030e+002 4.76885000e+004</_>
    <_>
      81. 5.65445984e+002 2.09665000e+004</_>
    <_>
      17. 7.54801025e+002 4296.</_>
    <_>
      6. 8.24229004e+002 225.</_>
    <_>
      165. 5.92218018e+002 23817.</_>
    <_>
      107. 7.95434998e+002 11673.</_>
    <_>
      100. 6.71192993e+002 41544.</_>
    <_>
      106. 6.72893005e+002 3.49535000e+004</_>
    <_>
      270. 6.73413025e+002 45268.</_>
    <_>
      109. 6.57056030e+002 37786.</_>
    <_>
      103. 6.72893005e+002 3.34955000e+004</_>
    <_>
      261. 6.88408020e+002 3.75125000e+004</_>
    <_>
      93. 6.35559998e+002 24076.</_>
    <_>
      13. 8.08223022e+002 3018.</_>
    <_>
      230. 6.95414001e+002 3.93895000e+004</_>
    <_>
      83. 6.62429993e+002 2.79405000e+004</_>
    <_>
      70. 6.75083008e+002 29323.</_>
    <_>
      101. 6.70093018e+002 29595.</_>
    <_>
      72. 6.86044006e+002 21099.</_>
    <_>
      65. 6.54028015e+002 20960.</_>
    <_>
      71. 6.98114990e+002 2.11685000e+004</_>
    <_>
      85. 6.78955994e+002 2.38745000e+004</_>
    <_>
      73. 6.81296997e+002 2.23145000e+004</_>
    <_>
      172. 7.21965027e+002 27035.</_>
    <_>
      167. 7.15286987e+002 2.54815000e+004</_>
    <_>
      52. 7.37890015e+002 1.49425000e+004</_>
    <_>
      42. 7.20323975e+002 1.41495000e+004</_>
    <_>
      21. 4.61753998e+002 1776.</_>
    <_>
      22. 3.56395996e+002 1879.</_>
    <_>
      25. 3.74733002e+002 1655.</_>
    <_>
      27. 4.61067993e+002 2494.</_>
    <_>
      20. 3.78308014e+002 3093.</_>
    <_>
      29. 4.54868011e+002 3.14150000e+003</_>
    <_>
      38. 4.52187012e+002 5936.</_>
    <_>
      22. 3.80265991e+002 2.97150000e+003</_>
    <_>
      38. 4.35354004e+002 5866.</_>
    <_>
      26. 3.82531006e+002 4.11650000e+003</_>
    <_>
      33. 4.43380005e+002 3.28250000e+003</_>
    <_>
      24. 3.91842010e+002 4.12350000e+003</_>
    <_>
      58. 4.15838013e+002 1.13115000e+004</_>
    <_>
      51. 4.07490997e+002 1.34875000e+004</_>
    <_>
      66. 4.10845001e+002 1.10155000e+004</_>
    <_>
      66. 4.10358002e+002 9.71150000e+003</_>
    <_>
      60. 4.15023010e+002 8104.</_>
    <_>
      43. 4.14076996e+002 6.26750000e+003</_>
    <_>
      6. 8.32322998e+002 8.27500000e+002</_>
    <_>
      52. 4.07813995e+002 9119.</_>
    <_>
      64. 4.07181000e+002 7857.</_>
    <_>
      53. 4.04401001e+002 6.51350000e+003</_>
    <_>
      55. 4.09395996e+002 4556.</_>
    <_>
      54. 4.08540009e+002 4444.</_>
    <_>
      6. 8.27304993e+002 1.12500000e+002</_>
    <_>
      60. 4.06596008e+002 5.86050000e+003</_>
    <_>
      9. 8.24330994e+002 585.</_>
    <_>
      60. 4.05209015e+002 6.71850000e+003</_>
    <_>
      8. 8.18510986e+002 1356.</_>
    <_>
      70. 3.88294006e+002 1.04065000e+004</_>
    <_>
      6. 8.13492004e+002 2.39500000e+002</_>
    <_>
      54. 4.05209015e+002 11892.</_>
    <_>
      8. 8.19435974e+002 1.43650000e+003</_>
    <_>
      79. 4.04105011e+002 13586.</_>
    <_>
      25. 8.26580017e+002 4.45150000e+003</_>
    <_>
      61. 3.98847992e+002 13309.</_>
    <_>
      9. 8.08721985e+002 949.</_>
    <_>
      34. 3.49285004e+002 2.96250000e+003</_>
    <_>
      20. 4.71682007e+002 2.44050000e+003</_>
    <_>
      16. 8.11843994e+002 1431.</_>
    <_>
      36. 8.16075012e+002 4.40850000e+003</_>
    <_>
      29. 4.70424988e+002 4067.</_>
    <_>
      46. 3.37713013e+002 4989.</_>
    <_>
      48. 4.88881012e+002 26542.</_>
    <_>
      58. 3.33294006e+002 1.63965000e+004</_>
    <_>
      15. 7.46536011e+002 3.73450000e+003</_>
    <_>
      18. 4.87951996e+002 1.36950000e+003</_>
    <_>
      44. 3.32303986e+002 2605.</_>
    <_>
      17. 7.98060974e+002 1.63350000e+003</_>
    <_>
      16. 4.91679993e+002 1.25150000e+003</_>
    <_>
      32. 3.35371002e+002 3227.</_>
    <_>
      9. 8.01648010e+002 1160.</_>
    <_>
      20. 4.99088013e+002 3513.</_>
    <_>
      35. 3.21175995e+002 4771.</_>
    <_>
      45. 7.92098999e+002 7.80250000e+003</_>
    <_>
      7. 8.30703003e+002 1.74500000e+002</_>
    <_>
      14. 4.98614990e+002 1.20350000e+003</_>
    <_>
      35. 3.20511993e+002 2906.</_>
    <_>
      20. 7.76640015e+002 9685.</_>
    <_>
      7. 4.95951996e+002 1.49550000e+003</_>
    <_>
      35. 3.11096008e+002 3.90350000e+003</_>
    <_>
      10. 7.91403992e+002 2.94150000e+003</_>
    <_>
      39. 3.09302002e+002 4383.</_>
    <_>
      56. 7.77452026e+002 5611.</_>
    <_>
      19. 5.30020020e+002 1084.</_>
    <_>
      6. 8.20875977e+002 223.</_>
    <_>
      14. 5.32846008e+002 974.</_>
    <_>
      45. 3.06451996e+002 2822.</_>
    <_>
      6. 7.58979980e+002 1807.</_>
    <_>
      13. 5.30518982e+002 8.34500000e+002</_>
    <_>
      52. 2.99528015e+002 3002.</_>
    <_>
      8. 7.65916016e+002 4648.</_>
    <_>
      48. 7.76755005e+002 5.91850000e+003</_>
    <_>
      49. 2.88881989e+002 5603.</_>
    <_>
      25. 5.43820984e+002 2019.</_>
    <_>
      9. 8.17588013e+002 294.</_>
    <_>
      35. 2.83322998e+002 2.91850000e+003</_>
    <_>
      17. 5.40940979e+002 1712.</_>
    <_>
      15. 7.69276001e+002 2477.</_>
    <_>
      39. 2.85806000e+002 2743.</_>
    <_>
      17. 5.43768982e+002 1.20550000e+003</_>
    <_>
      22. 7.53077026e+002 4.64950000e+003</_>
    <_>
      45. 2.75346985e+002 3789.</_>
    <_>
      38. 7.59770020e+002 5327.</_>
    <_>
      21. 5.54388000e+002 2608.</_>
    <_>
      6. 8.08369019e+002 393.</_>
    <_>
      38. 2.80018005e+002 4.56950000e+003</_>
    <_>
      12. 5.57416992e+002 1049.</_>
    <_>
      12. 7.96263000e+002 5.56850000e+003</_>
    <_>
      45. 2.69415985e+002 2979.</_>
    <_>
      17. 5.67242004e+002 1662.</_>
    <_>
      22. 7.68783997e+002 5010.</_>
    <_>
      77. 7.80067993e+002 1.24655000e+004</_>
    <_>
      40. 2.63058990e+002 3.10650000e+003</_>
    <_>
      32. 5.70224976e+002 2.72350000e+003</_>
    <_>
      7. 8.04114014e+002 142.</_>
    <_>
      19. 7.65309998e+002 7169.</_>
    <_>
      20. 2.60618011e+002 1.58450000e+003</_>
    <_>
      24. 5.82979004e+002 2.03150000e+003</_>
    <_>
      27. 7.50192017e+002 5851.</_>
    <_>
      10. 2.64915009e+002 7.59500000e+002</_>
    <_>
      34. 5.85138977e+002 2.91150000e+003</_>
    <_>
      21. 7.83546021e+002 9.60750000e+003</_>
    <_>
      21. 5.95106995e+002 13088.</_>
    <_>
      30. 7.59622009e+002 9.61550000e+003</_>
    <_>
      22. 6.06776001e+002 1.64450000e+003</_>
    <_>
      26. 6.12942017e+002 2626.</_>
    <_>
      16. 7.74122986e+002 8.98050000e+003</_>
    <_>
      98. 7.68846985e+002 13594.</_>
    <_>
      25. 6.18169006e+002 2.45550000e+003</_>
    <_>
      6. 7.92414978e+002 4.16500000e+002</_>
    <_>
      21. 6.32348999e+002 1.20550000e+003</_>
    <_>
      60. 7.15426025e+002 2.00405000e+004</_>
    <_>
      134. 7.43302979e+002 2.35375000e+004</_>
    <_>
      46. 6.96716003e+002 2.22815000e+004</_>
    <_>
      129. 7.36815979e+002 2.41485000e+004</_>
    <_>
      50. 7.19568970e+002 37189.</_>
    <_>
      45. 7.00703003e+002 15947.</_>
    <_>
      139. 7.37804993e+002 23692.</_>
    <_>
      52. 7.12531006e+002 17914.</_>
    <_>
      49. 7.10943970e+002 16687.</_>
    <_>
      49. 7.12320984e+002 1.88735000e+004</_>
    <_>
      67. 7.19000977e+002 18901.</_>
    <_>
      52. 7.11056030e+002 3.72175000e+004</_>
    <_>
      58. 7.18083984e+002 28140.</_>
    <_>
      63. 7.18755005e+002 2.12185000e+004</_>
    <_>
      58. 7.13379028e+002 37117.</_>
    <_>
      187. 7.12435974e+002 2.54665000e+004</_>
    <_>
      76. 7.10742004e+002 2.25585000e+004</_>
    <_>
      75. 7.07231995e+002 24117.</_>
    <_>
      113. 7.70638977e+002 14797.</_>
    <_>
      87. 6.31418030e+002 10673.</_>
    <_>
      79. 6.96208008e+002 27254.</_>
    <_>
      105. 6.93492981e+002 30271.</_>
    <_>
      72. 6.87905029e+002 2.50305000e+004</_>
    <_>
      229. 6.94275024e+002 3.60685000e+004</_>
    <_>
      40. 5.93619019e+002 7035.</_>
    <_>
      41. 7.57895020e+002 1.43715000e+004</_>
    <_>
      40. 5.92200012e+002 7.51450000e+003</_>
    <_>
      59. 7.51056030e+002 1.65295000e+004</_>
    <_>
      31. 5.80193970e+002 4875.</_>
    <_>
      47. 7.50658020e+002 1.03725000e+004</_>
    <_>
      236. 6.82294006e+002 3.62585000e+004</_>
    <_>
      50. 5.77234985e+002 9159.</_>
    <_>
      48. 7.38171997e+002 15129.</_>
    <_>
      117. 6.50958008e+002 3.13675000e+004</_>
    <_>
      239. 6.76184021e+002 3.69875000e+004</_>
    <_>
      92. 6.28106018e+002 3.67275000e+004</_>
    <_>
      109. 6.39049011e+002 40313.</_>
    <_>
      115. 6.27458984e+002 3.15115000e+004</_>
    <_>
      50. 5.53888000e+002 9233.</_>
    <_>
      55. 7.29463989e+002 1.28195000e+004</_>
    <_>
      232. 6.49658020e+002 3.69015000e+004</_>
    <_>
      20. 6.59336975e+002 2.15850000e+003</_>
    <_>
      55. 5.39185974e+002 12319.</_>
    <_>
      51. 5.42333008e+002 1.05125000e+004</_>
    <_>
      51. 7.12067017e+002 19013.</_>
    <_>
      260. 6.38021973e+002 44950.</_>
    <_>
      114. 6.24174011e+002 3.80685000e+004</_>
    <_>
      247. 6.29598022e+002 44380.</_>
    <_>
      28. 5.33679016e+002 3121.</_>
    <_>
      55. 6.96135986e+002 1.22605000e+004</_>
    <_>
      14. 4.59726013e+002 1.20550000e+003</_>
    <_>
      118. 6.09138977e+002 30757.</_>
    <_>
      127. 6.05083008e+002 3.59515000e+004</_>
    <_>
      118. 5.85406982e+002 3.23745000e+004</_>
    <_>
      119. 5.89200012e+002 37144.</_>
    <_>
      34. 5.19466003e+002 5572.</_>
    <_>
      27. 4.42634003e+002 6235.</_>
    <_>
      24. 7.16577026e+002 4.67750000e+003</_>
    <_>
      8. 8.41468018e+002 641.</_>
    <_>
      19. 6.09182983e+002 3.09750000e+003</_>
    <_>
      237. 5.87000977e+002 4.28545000e+004</_>
    <_>
      14. 8.42213989e+002 2025.</_>
    <_>
      141. 5.54260986e+002 38792.</_>
    <_>
      50. 4.55397003e+002 1.16405000e+004</_>
    <_>
      73. 6.48999023e+002 12705.</_>
    <_>
      231. 5.93205017e+002 3.38475000e+004</_>
    <_>
      27. 4.09591003e+002 3.71050000e+003</_>
    <_>
      52. 4.56792999e+002 13465.</_>
    <_>
      41. 6.73099976e+002 4.72850000e+003</_>
    <_>
      41. 5.96400024e+002 5408.</_>
    <_>
      143. 5.37901001e+002 3.79325000e+004</_>
    <_>
      138. 5.30588989e+002 3.95065000e+004</_>
    <_>
      120. 5.23927002e+002 4.28215000e+004</_>
    <_>
      109. 5.18556030e+002 44479.</_>
    <_>
      54. 5.79741028e+002 4.35850000e+003</_>
    <_>
      56. 4.32671997e+002 12380.</_>
    <_>
      34. 6.39901001e+002 3.90450000e+003</_>
    <_>
      284. 5.31096985e+002 4.48915000e+004</_>
    <_>
      37. 4.50432007e+002 5.33650000e+003</_>
    <_>
      62. 6.03119019e+002 16878.</_>
    <_>
      215. 5.44302979e+002 33530.</_>
    <_>
      34. 3.55382996e+002 4198.</_>
    <_>
      10. 8.40906982e+002 829.</_>
    <_>
      88. 5.96419006e+002 1.60105000e+004</_>
    <_>
      80. 4.21540985e+002 18546.</_>
    <_>
      156. 4.98605988e+002 45295.</_>
    <_>
      270. 5.28153015e+002 39355.</_>
    <_>
      24. 3.42912994e+002 3.29750000e+003</_>
    <_>
      22. 8.32060974e+002 1.77750000e+003</_>
    <_>
      97. 5.68684021e+002 20090.</_>
    <_>
      79. 4.02615997e+002 15298.</_>
    <_>
      6. 8.11005981e+002 1.99500000e+002</_>
    <_>
      184. 5.16741028e+002 35572.</_>
    <_>
      33. 3.30830994e+002 5.33250000e+003</_>
    <_>
      60. 4.12058990e+002 9.30450000e+003</_>
    <_>
      29. 3.25778992e+002 4759.</_>
    <_>
      75. 5.63072021e+002 1.44575000e+004</_>
    <_>
      13. 8.12145996e+002 939.</_>
    <_>
      131. 5.10235992e+002 3.69465000e+004</_>
    <_>
      7. 8.17200989e+002 1033.</_>
    <_>
      25. 3.23372986e+002 3306.</_>
    <_>
      118. 4.94453003e+002 3.68115000e+004</_>
    <_>
      34. 3.14841003e+002 3.62550000e+003</_>
    <_>
      11. 8.07703979e+002 1140.</_>
    <_>
      157. 4.78941986e+002 32348.</_>
    <_>
      32. 3.13080994e+002 3.73450000e+003</_>
    <_>
      44. 5.09825012e+002 5380.</_>
    <_>
      57. 5.99607971e+002 7.89350000e+003</_>
    <_>
      85. 4.05364990e+002 10129.</_>
    <_>
      29. 3.13049988e+002 2.69850000e+003</_>
    <_>
      14. 8.11252014e+002 1221.</_>
    <_>
      109. 5.63684998e+002 2.08075000e+004</_>
    <_>
      78. 4.00585999e+002 10346.</_>
    <_>
      21. 3.14992004e+002 2.65750000e+003</_>
    <_>
      10. 8.01551025e+002 819.</_>
    <_>
      50. 5.56804993e+002 15518.</_>
    <_>
      69. 3.96548004e+002 7404.</_>
    <_>
      15. 3.00467987e+002 2.16650000e+003</_>
    <_>
      11. 8.09049011e+002 2184.</_>
    <_>
      184. 5.47898987e+002 2.27465000e+004</_>
    <_>
      46. 2.94516998e+002 5666.</_>
    <_>
      108. 3.96062012e+002 8.36450000e+003</_>
    <_>
      49. 8.20195984e+002 4887.</_>
    <_>
      76. 3.83105988e+002 8981.</_>
    <_>
      45. 5.74281982e+002 6.37150000e+003</_>
    <_>
      30. 2.95710999e+002 3.33750000e+003</_>
    <_>
      48. 4.96105988e+002 6.66450000e+003</_>
    <_>
      10. 8.18427979e+002 9.10500000e+002</_>
    <_>
      288. 4.74118011e+002 4.07535000e+004</_>
    <_>
      36. 2.78726990e+002 5518.</_>
    <_>
      54. 8.11059021e+002 5894.</_>
    <_>
      77. 3.72604004e+002 9.80150000e+003</_>
    <_>
      35. 2.76509003e+002 4.69050000e+003</_>
    <_>
      147. 4.33502991e+002 36242.</_>
    <_>
      37. 2.71412994e+002 3670.</_>
    <_>
      14. 8.00968018e+002 2.22950000e+003</_>
    <_>
      177. 4.45480011e+002 3.91895000e+004</_>
    <_>
      32. 2.78539001e+002 3.63250000e+003</_>
    <_>
      15. 7.82218018e+002 2466.</_>
    <_>
      56. 5.60630005e+002 8977.</_>
    <_>
      130. 3.85148987e+002 28255.</_>
    <_>
      23. 8.01885986e+002 3081.</_>
    <_>
      31. 2.71035004e+002 3.83950000e+003</_>
    <_>
      89. 5.33489990e+002 1.92705000e+004</_>
    <_>
      99. 3.49195007e+002 1.07415000e+004</_>
    <_>
      20. 7.96193970e+002 3.24050000e+003</_>
    <_>
      15. 2.95148987e+002 1.18950000e+003</_>
    <_>
      95. 3.46716003e+002 1.03215000e+004</_>
    <_>
      37. 5.37820007e+002 6.15250000e+003</_>
    <_>
      21. 2.64704987e+002 2575.</_>
    <_>
      25. 4.39209991e+002 2637.</_>
    <_>
      17. 7.88182983e+002 2474.</_>
    <_>
      97. 4.75298004e+002 22031.</_>
    <_>
      100. 3.42545990e+002 9153.</_>
    <_>
      14. 7.60528992e+002 2.60950000e+003</_>
    <_>
      9. 2.46641006e+002 1.05150000e+003</_>
    <_>
      51. 4.46971985e+002 6.85350000e+003</_>
    <_>
      91. 3.38395996e+002 9.14250000e+003</_>
    <_>
      45. 5.24604980e+002 8432.</_>
    <_>
      15. 2.49195007e+002 1058.</_>
    <_>
      23. 7.76494995e+002 3.34550000e+003</_>
    <_>
      141. 4.85743011e+002 2.56815000e+004</_>
    <_>
      79. 3.36145996e+002 11245.</_>
    <_>
      14. 2.57217987e+002 1313.</_>
    <_>
      22. 7.73122009e+002 6331.</_>
    <_>
      308. 4.21552002e+002 4.88905000e+004</_>
    <_>
      73. 7.74994995e+002 8.54650000e+003</_>
    <_>
      119. 4.81813995e+002 2.17625000e+004</_>
    <_>
      102. 3.24493011e+002 10023.</_>
    <_>
      24. 7.71767029e+002 3911.</_>
    <_>
      244. 3.90591003e+002 44610.</_>
    <_>
      15. 7.57770020e+002 2178.</_>
    <_>
      56. 4.19886993e+002 6.94550000e+003</_>
    <_>
      86. 5.22716980e+002 1.00545000e+004</_>
    <_>
      96. 3.12237000e+002 11447.</_>
    <_>
      24. 7.72362976e+002 2.76450000e+003</_>
    <_>
      224. 4.70558014e+002 30742.</_>
    <_>
      94. 7.82953979e+002 10827.</_>
    <_>
      136. 4.44173004e+002 2.43585000e+004</_>
    <_>
      110. 3.01868988e+002 11288.</_>
    <_>
      26. 7.81588989e+002 5.50550000e+003</_>
    <_>
      73. 4.94143005e+002 10064.</_>
    <_>
      80. 4.10648987e+002 9376.</_>
    <_>
      87. 2.93079987e+002 1.13495000e+004</_>
    <_>
      26. 7.31560974e+002 3.27650000e+003</_>
    <_>
      6. 8.04104980e+002 3.35500000e+002</_>
    <_>
      107. 2.87308014e+002 12492.</_>
    <_>
      167. 4.53546997e+002 3.01315000e+004</_>
    <_>
      46. 7.49554993e+002 8.37150000e+003</_>
    <_>
      157. 4.38463013e+002 3.16745000e+004</_>
    <_>
      117. 2.83184998e+002 1.16445000e+004</_>
    <_>
      32. 7.31333008e+002 4598.</_>
    <_>
      157. 4.26399994e+002 2.90215000e+004</_>
    <_>
      115. 2.82087006e+002 10410.</_>
    <_>
      26. 7.30067993e+002 5074.</_>
    <_>
      7. 8.14926025e+002 492.</_>
    <_>
      112. 2.76342010e+002 1.33995000e+004</_>
    <_>
      175. 4.15864990e+002 26332.</_>
    <_>
      19. 7.31090027e+002 2181.</_>
    <_>
      158. 4.27804993e+002 34291.</_>
    <_>
      109. 2.69433014e+002 1.27025000e+004</_>
    <_>
      24. 7.12580017e+002 4163.</_>
    <_>
      164. 4.26385986e+002 3.12445000e+004</_>
    <_>
      117. 2.57769012e+002 1.29165000e+004</_>
    <_>
      41. 7.36892029e+002 7.84350000e+003</_>
    <_>
      114. 2.59346985e+002 12759.</_>
    <_>
      183. 4.20059998e+002 3.12505000e+004</_>
    <_>
      35. 7.22132996e+002 3932.</_>
    <_>
      180. 4.01838013e+002 2.85695000e+004</_>
    <_>
      111. 2.57562012e+002 11058.</_>
    <_>
      27. 7.14570007e+002 2947.</_>
    <_>
      183. 3.99740997e+002 2.98535000e+004</_>
    <_>
      102. 2.53733994e+002 9.77050000e+003</_>
    <_>
      29. 7.02781006e+002 3185.</_>
    <_>
      185. 4.01204010e+002 32400.</_>
    <_>
      93. 2.55895004e+002 1.03435000e+004</_>
    <_>
      16. 6.94481995e+002 2237.</_>
    <_>
      11. 7.82606995e+002 1.04250000e+003</_>
    <_>
      87. 2.45231003e+002 9.86550000e+003</_>
    <_>
      176. 4.00345001e+002 2.94725000e+004</_>
    <_>
      45. 7.04716003e+002 5745.</_>
    <_>
      164. 3.81273987e+002 30993.</_>
    <_>
      89. 2.37244995e+002 9040.</_>
    <_>
      27. 6.95432007e+002 4.10950000e+003</_>
    <_>
      6. 7.70210999e+002 1.84500000e+002</_>
    <_>
      193. 3.82127014e+002 31519.</_>
    <_>
      80. 2.34292999e+002 6.84850000e+003</_>
    <_>
      31. 6.96286987e+002 4919.</_>
    <_>
      191. 3.78875000e+002 27768.</_>
    <_>
      68. 2.33567993e+002 6572.</_>
    <_>
      39. 6.96294006e+002 4.74350000e+003</_>
    <_>
      184. 3.80170990e+002 33195.</_>
    <_>
      60. 2.30931000e+002 5.87450000e+003</_>
    <_>
      14. 6.82245972e+002 1.59350000e+003</_>
    <_>
      264. 3.85330994e+002 3.89535000e+004</_>
    <_>
      49. 2.27108002e+002 4.70350000e+003</_>
    <_>
      15. 8.45116028e+002 1.06550000e+003</_>
    <_>
      203. 3.63127014e+002 32329.</_>
    <_>
      17. 6.81706970e+002 2095.</_>
    <_>
      47. 2.11442993e+002 3564.</_>
    <_>
      217. 3.41713013e+002 3.14745000e+004</_>
    <_>
      34. 2.16541000e+002 2509.</_>
    <_>
      12. 6.48189026e+002 1.23250000e+003</_>
    <_>
      9. 7.72979004e+002 889.</_>
    <_>
      218. 3.46394012e+002 36392.</_>
    <_>
      19. 6.57362000e+002 1715.</_>
    <_>
      26. 2.19203003e+002 2.00650000e+003</_>
    <_>
      10. 7.45573975e+002 5.91500000e+002</_>
    <_>
      181. 3.60679993e+002 36638.</_>
    <_>
      38. 6.62820007e+002 4043.</_>
    <_>
      28. 2.10867004e+002 1724.</_>
    <_>
      207. 3.49244995e+002 38786.</_>
    <_>
      45. 6.66424011e+002 5705.</_>
    <_>
      227. 3.38209015e+002 3.91915000e+004</_>
    <_>
      30. 6.62314026e+002 4881.</_>
    <_>
      8. 7.34245972e+002 486.</_>
    <_>
      220. 3.29334015e+002 3.32435000e+004</_>
    <_>
      19. 6.51312988e+002 4021.</_>
    <_>
      6. 7.31206970e+002 4.87500000e+002</_>
    <_>
      244. 3.27123993e+002 4.45295000e+004</_>
    <_>
      21. 6.39500977e+002 4.16550000e+003</_>
    <_>
      229. 3.39013000e+002 41398.</_>
    <_>
      20. 6.35138000e+002 3112.</_>
    <_>
      6. 7.99942993e+002 112.</_>
    <_>
      253. 3.28757996e+002 42133.</_>
    <_>
      36. 6.51556030e+002 6027.</_>
    <_>
      6. 7.59296021e+002 2.89500000e+002</_>
    <_>
      11. 7.97775024e+002 4.29500000e+002</_>
    <_>
      238. 3.07039001e+002 4.26535000e+004</_>
    <_>
      41. 6.46226013e+002 5.86950000e+003</_>
    <_>
      6. 7.20794983e+002 2.71500000e+002</_>
    <_>
      10. 7.58294983e+002 4.41500000e+002</_>
    <_>
      8. 8.21601013e+002 7.74500000e+002</_>
    <_>
      314. 3.12578003e+002 47756.</_>
    <_>
      82. 6.36833984e+002 9.66250000e+003</_>
    <_>
      29. 7.31312988e+002 2447.</_>
    <_>
      31. 8.21630981e+002 3.92150000e+003</_>
    <_>
      242. 3.02644989e+002 47725.</_>
    <_>
      46. 6.33286987e+002 7126.</_>
    <_>
      205. 3.35335999e+002 31987.</_>
    <_>
      14. 8.07190002e+002 2175.</_>
    <_>
      43. 1.96121994e+002 4705.</_>
    <_>
      230. 3.00122986e+002 4.53555000e+004</_>
    <_>
      20. 7.15731995e+002 1621.</_>
    <_>
      37. 6.23211975e+002 4834.</_>
    <_>
      17. 8.12198975e+002 2197.</_>
    <_>
      240. 2.98940002e+002 4.50045000e+004</_>
    <_>
      18. 8.08257996e+002 2.15750000e+003</_>
    <_>
      13. 7.06059998e+002 1479.</_>
    <_>
      35. 6.15465027e+002 5.74550000e+003</_>
    <_>
      325. 3.02539001e+002 4.50145000e+004</_>
    <_>
      81. 6.10419983e+002 8.61950000e+003</_>
    <_>
      24. 7.05539001e+002 2.81450000e+003</_>
    <_>
      65. 8.04552979e+002 6717.</_>
    <_>
      292. 3.09220001e+002 3.71695000e+004</_>
    <_>
      60. 8.02796021e+002 6941.</_>
    <_>
      250. 2.91872009e+002 37017.</_>
    <_>
      16. 7.98851990e+002 2499.</_>
    <_>
      8. 6.82401978e+002 352.</_>
    <_>
      10. 7.15888977e+002 5.72500000e+002</_>
    <_>
      33. 5.94273010e+002 5570.</_>
    <_>
      281. 2.89638000e+002 3.83105000e+004</_>
    <_>
      87. 5.96351013e+002 8.60150000e+003</_>
    <_>
      68. 8.00083008e+002 7.62350000e+003</_>
    <_>
      41. 6.90340027e+002 3.44350000e+003</_>
    <_>
      232. 2.87312012e+002 3.62625000e+004</_>
    <_>
      43. 5.88375000e+002 6.45450000e+003</_>
    <_>
      36. 7.90122009e+002 5.85150000e+003</_>
    <_>
      227. 2.83980988e+002 33304.</_>
    <_>
      62. 5.97547974e+002 9328.</_>
    <_>
      266. 2.75931000e+002 3.52215000e+004</_>
    <_>
      82. 7.88684998e+002 9.39050000e+003</_>
    <_>
      19. 7.99062012e+002 2.75750000e+003</_>
    <_>
      26. 5.58599976e+002 3549.</_>
    <_>
      32. 7.75765991e+002 5558.</_>
    <_>
      44. 5.60237000e+002 6.81050000e+003</_>
    <_>
      9. 6.46492981e+002 6.26500000e+002</_>
    <_>
      28. 7.83416016e+002 5085.</_>
    <_>
      14. 6.36431030e+002 8.90500000e+002</_>
    <_>
      39. 5.58249023e+002 6.06950000e+003</_>
    <_>
      57. 5.91005981e+002 9201.</_>
    <_>
      38. 7.63723022e+002 5.09650000e+003</_>
    <_>
      21. 6.47650024e+002 2172.</_>
    <_>
      34. 7.70633972e+002 5.70750000e+003</_>
    <_>
      35. 5.56848999e+002 6.63750000e+003</_>
    <_>
      194. 2.51098007e+002 27609.</_>
    <_>
      9. 6.38273987e+002 8.15500000e+002</_>
    <_>
      33. 7.52771973e+002 6465.</_>
    <_>
      35. 5.41495972e+002 4.44950000e+003</_>
    <_>
      7. 6.69007019e+002 4.51500000e+002</_>
    <_>
      210. 2.54244003e+002 26324.</_>
    <_>
      141. 5.76202026e+002 19249.</_>
    <_>
      115. 7.58348999e+002 10861.</_>
    <_>
      80. 5.73413025e+002 14704.</_>
    <_>
      147. 2.49945999e+002 2.33275000e+004</_>
    <_>
      40. 7.56745972e+002 5.75250000e+003</_>
    <_>
      41. 5.70799988e+002 1.48245000e+004</_>
    <_>
      28. 7.61614990e+002 4908.</_>
    <_>
      163. 2.51072006e+002 21886.</_>
    <_>
      28. 7.33426025e+002 5.91750000e+003</_>
    <_>
      141. 2.48712997e+002 23700.</_>
    <_>
      170. 2.49649994e+002 23831.</_>
    <_>
      112. 7.57612976e+002 14289.</_>
    <_>
      124. 2.43813004e+002 20776.</_>
    <_>
      57. 5.22732971e+002 11779.</_>
    <_>
      42. 7.44828979e+002 7392.</_>
    <_>
      113. 2.46343002e+002 1.90855000e+004</_>
    <_>
      44. 7.40622986e+002 7642.</_>
    <_>
      20. 6.22408020e+002 2570.</_>
    <_>
      125. 2.50455994e+002 20354.</_>
    <_>
      16. 6.20202026e+002 2288.</_>
    <_>
      33. 5.03989014e+002 7958.</_>
    <_>
      46. 7.24280029e+002 7810.</_>
    <_>
      114. 2.58652008e+002 12970.</_>
    <_>
      144. 5.43179993e+002 18202.</_>
    <_>
      140. 7.43645996e+002 18491.</_>
    <_>
      91. 2.56125000e+002 1.28005000e+004</_>
    <_>
      65. 7.41265991e+002 1.38565000e+004</_>
    <_>
      153. 5.29317017e+002 2.05655000e+004</_>
    <_>
      108. 2.48130997e+002 1.20265000e+004</_>
    <_>
      136. 7.48971008e+002 19330.</_>
    <_>
      58. 5.06773987e+002 14221.</_>
    <_>
      77. 2.54371994e+002 8.39350000e+003</_>
    <_>
      32. 7.02487976e+002 5.61650000e+003</_>
    <_>
      14. 8.21299011e+002 2.37450000e+003</_>
    <_>
      134. 7.36072021e+002 21260.</_>
    <_>
      87. 2.45733994e+002 9.38750000e+003</_>
    <_>
      50. 6.99810974e+002 7.50550000e+003</_>
    <_>
      63. 4.97256989e+002 10947.</_>
    <_>
      69. 2.46951004e+002 6.90450000e+003</_>
    <_>
      11. 6.05918030e+002 746.</_>
    <_>
      18. 8.08302979e+002 2.15450000e+003</_>
    <_>
      177. 7.28869019e+002 22962.</_>
    <_>
      38. 2.60640015e+002 4333.</_>
    <_>
      17. 1.71231003e+002 1.38150000e+003</_>
    <_>
      97. 4.78759003e+002 20443.</_>
    <_>
      36. 2.23516998e+002 4763.</_>
    <_>
      37. 6.69544006e+002 5592.</_>
    <_>
      22. 8.00083008e+002 3.24950000e+003</_>
    <_>
      26. 2.18929001e+002 3.22050000e+003</_>
    <_>
      70. 4.74649994e+002 17137.</_>
    <_>
      14. 8.03831970e+002 1645.</_>
    <_>
      44. 6.87833008e+002 8959.</_>
    <_>
      142. 4.84001007e+002 2.11645000e+004</_>
    <_>
      179. 7.23062012e+002 21707.</_>
    <_>
      62. 7.21666016e+002 1.48315000e+004</_>
    <_>
      89. 4.74782013e+002 21723.</_>
    <_>
      100. 4.67911011e+002 20269.</_>
    <_>
      29. 6.55458984e+002 5.09550000e+003</_>
    <_>
      11. 7.86599976e+002 2.93850000e+003</_>
    <_>
      28. 7.84607971e+002 5.38150000e+003</_>
    <_>
      52. 6.56507019e+002 6439.</_>
    <_>
      186. 7.06385010e+002 23313.</_>
    <_>
      118. 4.46971985e+002 20449.</_>
    <_>
      52. 6.34924011e+002 9416.</_>
    <_>
      30. 7.76546997e+002 4.09650000e+003</_>
    <_>
      96. 4.25829010e+002 1.94755000e+004</_>
    <_>
      81. 6.70965027e+002 2.08615000e+004</_>
    <_>
      159. 4.35614990e+002 2.67065000e+004</_>
    <_>
      109. 6.33439026e+002 9857.</_>
    <_>
      82. 7.76208984e+002 1.30505000e+004</_>
    <_>
      29. 7.74950012e+002 5.60250000e+003</_>
    <_>
      46. 6.22210999e+002 6322.</_>
    <_>
      187. 4.73700989e+002 44365.</_>
    <_>
      182. 4.14373993e+002 2.69715000e+004</_>
    <_>
      117. 6.12052979e+002 1.14485000e+004</_>
    <_>
      92. 7.74349976e+002 1.17145000e+004</_>
    <_>
      95. 3.98152008e+002 2.17915000e+004</_>
    <_>
      62. 6.14721008e+002 8707.</_>
    <_>
      33. 7.73362976e+002 9415.</_>
    <_>
      93. 3.94001007e+002 23671.</_>
    <_>
      57. 6.05534973e+002 8708.</_>
    <_>
      118. 3.91992004e+002 21552.</_>
    <_>
      72. 5.91400024e+002 8889.</_>
    <_>
      38. 7.43140015e+002 4.89050000e+003</_>
    <_>
      8. 8.13955994e+002 658.</_>
    <_>
      62. 5.87799988e+002 9.50850000e+003</_>
    <_>
      22. 7.39539978e+002 4527.</_>
    <_>
      121. 5.90202026e+002 1.16295000e+004</_>
    <_>
      99. 7.67776001e+002 1.34845000e+004</_>
    <_>
      40. 5.81400024e+002 6914.</_>
    <_>
      33. 7.64500000e+002 10788.</_>
    <_>
      34. 7.19781006e+002 5.65450000e+003</_>
    <_>
      64. 5.75817017e+002 9330.</_>
    <_>
      16. 8.13033997e+002 2.40050000e+003</_>
    <_>
      46. 5.72013977e+002 6710.</_>
    <_>
      27. 8.09030029e+002 3.24550000e+003</_>
    <_>
      22. 7.13987000e+002 3079.</_>
    <_>
      122. 5.73619995e+002 10713.</_>
    <_>
      113. 7.52215027e+002 1.47425000e+004</_>
    <_>
      74. 5.59729004e+002 9.43150000e+003</_>
    <_>
      6. 8.35130005e+002 250.</_>
    <_>
      37. 7.07664001e+002 5173.</_>
    <_>
      6. 7.78599976e+002 427.</_>
    <_>
      135. 7.42784973e+002 17097.</_>
    <_>
      120. 5.55825012e+002 12610.</_>
    <_>
      50. 7.43236023e+002 12410.</_>
    <_>
      60. 5.52398987e+002 9909.</_>
    <_>
      24. 7.85369019e+002 4.12150000e+003</_>
    <_>
      69. 5.49583008e+002 9.45350000e+003</_>
    <_>
      38. 6.88151001e+002 5240.</_>
    <_>
      71. 7.94528992e+002 6.32050000e+003</_>
    <_>
      123. 5.42406982e+002 1.19215000e+004</_>
    <_>
      69. 6.92892029e+002 7.04250000e+003</_>
    <_>
      54. 7.36536011e+002 12691.</_>
    <_>
      61. 5.31158997e+002 9663.</_>
    <_>
      141. 7.26125000e+002 19264.</_>
    <_>
      119. 5.30456970e+002 1.31365000e+004</_>
    <_>
      86. 2.59239014e+002 9.02950000e+003</_>
    <_>
      33. 7.78137024e+002 5.01550000e+003</_>
    <_>
      81. 3.83891998e+002 1.11265000e+004</_>
    <_>
      62. 6.68138977e+002 6569.</_>
    <_>
      89. 5.22281006e+002 1.10245000e+004</_>
    <_>
      178. 7.26125000e+002 22814.</_>
    <_>
      131. 5.20343018e+002 13836.</_>
    <_>
      36. 7.74883972e+002 5.56950000e+003</_>
    <_>
      31. 6.57088013e+002 5133.</_>
    <_>
      80. 5.12789978e+002 8.84250000e+003</_>
    <_>
      72. 3.56601990e+002 9.66250000e+003</_>
    <_>
      97. 2.34882996e+002 11690.</_>
    <_>
      46. 6.49844971e+002 5887.</_>
    <_>
      19. 7.39750977e+002 2712.</_>
    <_>
      67. 5.07417999e+002 9559.</_>
    <_>
      7. 8.16315002e+002 873.</_>
    <_>
      74. 3.60139008e+002 10122.</_>
    <_>
      89. 2.39384995e+002 8.41950000e+003</_>
    <_>
      75. 5.01326996e+002 9.63550000e+003</_>
    <_>
      69. 6.77388977e+002 12837.</_>
    <_>
      112. 3.53069000e+002 1.10745000e+004</_>
    <_>
      110. 2.34776001e+002 1.25365000e+004</_>
    <_>
      80. 6.46232971e+002 10399.</_>
    <_>
      82. 7.79572021e+002 1.03505000e+004</_>
    <_>
      112. 4.94540009e+002 12646.</_>
    <_>
      14. 5.89879028e+002 81249.</_>
    <_>
      11. 8.11934021e+002 2.20150000e+003</_>
    <_>
      16. 5.97726990e+002 121415.</_>
    <_>
      7. 7.79138977e+002 4785.</_>
    <_>
      33. 8.18382019e+002 1.01685000e+004</_>
    <_>
      9. 7.88551025e+002 13848.</_>
    <_>
      12. 7.77421997e+002 5.12945000e+004</_>
    <_>
      12. 8.00051025e+002 1.00885000e+004</_>
    <_>
      9. 7.68260986e+002 1.62415000e+004</_>
    <_>
      49. 8.07138977e+002 6513.</_>
    <_>
      18. 7.47745972e+002 90916.</_>
    <_>
      14. 7.88908020e+002 1.56655000e+004</_>
    <_>
      11. 8.14166992e+002 5037.</_>
    <_>
      14. 7.83955017e+002 1.76685000e+004</_>
    <_>
      15. 7.98159973e+002 9.05750000e+003</_>
    <_>
      15. 8.04031982e+002 5.85050000e+003</_>
    <_>
      19. 8.16283997e+002 8.86650000e+003</_>
    <_>
      65. 7.98203979e+002 9098.</_>
    <_>
      23. 7.92591003e+002 11928.</_>
    <_>
      18. 7.93237976e+002 10204.</_>
    <_>
      68. 7.86630981e+002 12211.</_>
    <_>
      18. 7.79435974e+002 18989.</_>
    <_>
      43. 7.74101990e+002 43170.</_>
    <_>
      106. 7.87791992e+002 26372.</_>
    <_>
      17. 7.66541016e+002 5.80850000e+003</_>
    <_>
      73. 7.97668030e+002 1.28635000e+004</_>
    <_>
      109. 7.84398010e+002 17900.</_>
    <_>
      29. 7.87955994e+002 11057.</_>
    <_>
      35. 7.87692993e+002 1.81635000e+004</_>
    <_>
      27. 7.58489014e+002 6.39250000e+003</_>
    <_>
      36. 7.82299988e+002 2.41815000e+004</_>
    <_>
      36. 7.77064026e+002 34375.</_>
    <_>
      149. 7.72739014e+002 2.41075000e+004</_>
    <_>
      51. 7.60616028e+002 15641.</_>
    <_>
      33. 7.66443970e+002 1.16645000e+004</_>
    <_>
      37. 7.79419983e+002 8.72450000e+003</_>
    <_>
      139. 7.79310974e+002 17357.</_>
    <_>
      31. 7.57408997e+002 13153.</_>
    <_>
      57. 7.59471008e+002 15594.</_>
    <_>
      44. 7.60721985e+002 1.32095000e+004</_>
    <_>
      48. 7.63445984e+002 12909.</_>
    <_>
      51. 7.67804993e+002 11443.</_>
    <_>
      45. 7.43719971e+002 1.83075000e+004</_>
    <_>
      47. 7.61000977e+002 13554.</_>
    <_>
      48. 7.69674988e+002 14557.</_>
    <_>
      67. 7.62492981e+002 1.66505000e+004</_>
    <_>
      45. 7.56745972e+002 1.75185000e+004</_>
    <_>
      65. 7.52648987e+002 18099.</_>
    <_>
      215. 7.52723999e+002 2.15425000e+004</_>
    <_>
      73. 7.31062012e+002 1.58765000e+004</_>
    <_>
      86. 7.53914978e+002 1.77675000e+004</_>
    <_>
      48. 7.38505005e+002 1.43305000e+004</_>
    <_>
      218. 7.44153992e+002 23844.</_>
    <_>
      68. 7.28237976e+002 22559.</_>
    <_>
      92. 7.28742004e+002 2.52165000e+004</_>
    <_>
      79. 7.30262024e+002 23035.</_>
    <_>
      226. 7.31312988e+002 2.75825000e+004</_>
    <_>
      92. 7.14138977e+002 23182.</_>
    <_>
      81. 7.17739014e+002 26149.</_>
    <_>
      84. 7.13630981e+002 2.29985000e+004</_>
    <_>
      74. 7.19950989e+002 2.46855000e+004</_>
    <_>
      101. 7.17943970e+002 2.94395000e+004</_>
    <_>
      96. 7.07260986e+002 2.59615000e+004</_>
    <_>
      256. 7.16247009e+002 28706.</_>
    <_>
      94. 6.87833008e+002 2.06855000e+004</_>
    <_>
      282. 7.10521973e+002 37415.</_>
    <_>
      89. 6.90827026e+002 2.80495000e+004</_>
    <_>
      317. 6.99088989e+002 36372.</_>
    <_>
      110. 6.69406982e+002 37112.</_>
    <_>
      117. 6.76085999e+002 28923.</_>
    <_>
      346. 6.90499023e+002 4.31355000e+004</_>
    <_>
      145. 6.60989014e+002 29945.</_>
    <_>
      144. 6.59364014e+002 35616.</_>
    <_>
      342. 6.79854004e+002 4.14805000e+004</_>
    <_>
      141. 6.56299011e+002 3.95375000e+004</_>
    <_>
      125. 6.46271973e+002 3.51525000e+004</_>
    <_>
      159. 6.59666992e+002 3.55155000e+004</_>
    <_>
      402. 6.69833984e+002 45468.</_>
    <_>
      170. 6.30448975e+002 41387.</_>
    <_>
      119. 6.04723022e+002 2.50085000e+004</_>
    <_>
      382. 6.57043030e+002 46214.</_>
    <_>
      139. 6.32104980e+002 34718.</_>
    <_>
      138. 6.42122986e+002 38810.</_>
    <_>
      160. 6.35963989e+002 4.15895000e+004</_>
    <_>
      461. 6.50385986e+002 5.31995000e+004</_>
    <_>
      213. 6.23211975e+002 6.19535000e+004</_>
    <_>
      459. 6.40177979e+002 52899.</_>
    <_>
      183. 6.07296997e+002 43959.</_>
    <_>
      434. 6.24994019e+002 58654.</_>
    <_>
      183. 6.00906982e+002 55506.</_>
    <_>
      190. 6.24593018e+002 42213.</_>
    <_>
      457. 6.18111023e+002 5.42485000e+004</_>
    <_>
      214. 6.11966980e+002 41196.</_>
    <_>
      460. 6.13208984e+002 56852.</_>
    <_>
      213. 6.03911011e+002 45567.</_>
    <_>
      196. 5.85895996e+002 4.90175000e+004</_>
    <_>
      484. 6.03685974e+002 5.17845000e+004</_>
    <_>
      222. 5.80672974e+002 51818.</_>
    <_>
      444. 5.86601013e+002 5.75125000e+004</_>
    <_>
      265. 5.65601013e+002 5.17645000e+004</_>
    <_>
      227. 5.52109985e+002 45321.</_>
    <_>
      252. 5.46424988e+002 57783.</_>
    <_>
      236. 5.55447021e+002 5.04655000e+004</_>
    <_>
      260. 5.55447021e+002 5.58615000e+004</_>
    <_>
      527. 5.54130005e+002 6.00595000e+004</_>
    <_>
      259. 5.19963013e+002 58061.</_>
    <_>
      270. 5.34270996e+002 5.63415000e+004</_>
    <_>
      264. 5.30091003e+002 52548.</_>
    <_>
      248. 5.13054993e+002 53615.</_>
    <_>
      16. 8.34559021e+002 1.57450000e+003</_>
    <_>
      265. 4.89940002e+002 48684.</_>
    <_>
      518. 5.20219971e+002 6.12365000e+004</_>
    <_>
      10. 8.42823975e+002 6.93500000e+002</_>
    <_>
      363. 5.09244995e+002 5.84995000e+004</_>
    <_>
      15. 8.33778992e+002 1088.</_>
    <_>
      290. 5.00675995e+002 55635.</_>
    <_>
      18. 8.26706970e+002 1.36250000e+003</_>
    <_>
      517. 5.12064026e+002 65823.</_>
    <_>
      27. 7.92500000e+002 3.27950000e+003</_>
    <_>
      337. 4.78682007e+002 60651.</_>
    <_>
      17. 8.09101013e+002 1763.</_>
    <_>
      533. 4.91546997e+002 6.69365000e+004</_>
    <_>
      28. 8.00161987e+002 2.00850000e+003</_>
    <_>
      331. 4.54829010e+002 5.63515000e+004</_>
    <_>
      11. 7.93737000e+002 1.06350000e+003</_>
    <_>
      539. 4.77867004e+002 68379.</_>
    <_>
      23. 7.89638000e+002 1524.</_>
    <_>
      396. 4.66138000e+002 6.05355000e+004</_>
    <_>
      14. 7.81575989e+002 8.84500000e+002</_>
    <_>
      262. 3.94381012e+002 39773.</_>
    <_>
      116. 5.75434021e+002 17507.</_>
    <_>
      575. 4.62664001e+002 71344.</_>
    <_>
      27. 7.59064026e+002 2549.</_>
    <_>
      357. 4.30795990e+002 57420.</_>
    <_>
      17. 7.52372986e+002 1.47450000e+003</_>
    <_>
      562. 4.42648987e+002 69381.</_>
    <_>
      28. 7.40122009e+002 1803.</_>
    <_>
      339. 3.81167999e+002 51951.</_>
    <_>
      12. 7.40745972e+002 9.81500000e+002</_>
    <_>
      428. 4.07647003e+002 6.26925000e+004</_>
    <_>
      473. 4.09059998e+002 6.81565000e+004</_>
    <_>
      17. 7.30551025e+002 1826.</_>
    <_>
      624. 4.20862000e+002 75090.</_>
    <_>
      27. 7.18799988e+002 3267.</_>
    <_>
      639. 4.18072998e+002 75538.</_>
    <_>
      31. 7.03314026e+002 3467.</_>
    <_>
      432. 3.92473999e+002 6.75095000e+004</_>
    <_>
      18. 7.06966980e+002 1085.</_>
    <_>
      442. 3.98869995e+002 67564.</_>
    <_>
      19. 6.97551025e+002 1.68450000e+003</_>
    <_>
      670. 3.97372986e+002 8.16885000e+004</_>
    <_>
      21. 6.88106018e+002 1998.</_>
    <_>
      454. 3.72979004e+002 71122.</_>
    <_>
      11. 6.85963989e+002 1.49750000e+003</_>
    <_>
      479. 3.59355988e+002 7.56935000e+004</_>
    <_>
      14. 6.86559998e+002 8.69500000e+002</_>
    <_>
      748. 3.95296997e+002 91275.</_>
    <_>
      537. 3.69131012e+002 8.36985000e+004</_>
    <_>
      686. 3.93315002e+002 8.33495000e+004</_>
    <_>
      548. 3.51091003e+002 73405.</_>
    <_>
      701. 3.74647003e+002 7.79935000e+004</_>
    <_>
      15. 6.37408020e+002 1320.</_>
    <_>
      723. 3.70799011e+002 8.58415000e+004</_>
    <_>
      458. 3.14515991e+002 5.78375000e+004</_>
    <_>
      20. 6.14648987e+002 1.41250000e+003</_>
    <_>
      717. 3.67348999e+002 9.48515000e+004</_>
    <_>
      715. 3.60605988e+002 96109.</_>
    <_>
      590. 3.34013000e+002 82941.</_>
    <_>
      725. 3.46621002e+002 90060.</_>
    <_>
      497. 3.37243011e+002 7.96115000e+004</_>
    <_>
      542. 3.24007996e+002 70561.</_>
    <_>
      725. 3.44200989e+002 9.20915000e+004</_>
    <_>
      468. 3.16471008e+002 6.55825000e+004</_>
    <_>
      702. 3.44013000e+002 8.21725000e+004</_>
    <_>
      626. 3.34677002e+002 77389.</_>
    <_>
      504. 3.14542999e+002 6.54445000e+004</_>
    <_>
      521. 3.20619995e+002 70480.</_>
    <_>
      648. 3.34332001e+002 72587.</_>
    <_>
      513. 3.14515991e+002 6.47795000e+004</_>
    <_>
      559. 3.18403992e+002 6.95455000e+004</_>
    <_>
      456. 3.01032990e+002 60697.</_>
    <_>
      564. 3.15381989e+002 68864.</_>
    <_>
      475. 2.96704987e+002 58900.</_>
    <_>
      560. 3.18148010e+002 6.67625000e+004</_>
    <_>
      479. 3.07846008e+002 62401.</_>
    <_>
      566. 3.17101013e+002 7.11395000e+004</_>
    <_>
      434. 3.00322998e+002 62905.</_>
    <_>
      409. 2.94105011e+002 5.76075000e+004</_>
    <_>
      516. 3.15050995e+002 68973.</_>
    <_>
      367. 2.99446014e+002 54627.</_>
    <_>
      386. 2.89946991e+002 5.02545000e+004</_>
    <_>
      435. 2.97808990e+002 5.59885000e+004</_>
    <_>
      349. 2.99363007e+002 5.26405000e+004</_>
    <_>
      478. 3.18868011e+002 7.40235000e+004</_>
    <_>
      334. 2.86252014e+002 45588.</_>
    <_>
      345. 2.88063995e+002 4.44125000e+004</_>
    <_>
      361. 2.88278015e+002 46058.</_>
    <_>
      308. 2.80920013e+002 3.71135000e+004</_>
    <_>
      296. 2.82644989e+002 43250.</_>
    <_>
      339. 2.83087006e+002 46638.</_>
    <_>
      311. 2.80015991e+002 4.16565000e+004</_>
    <_>
      269. 2.84917999e+002 3.90025000e+004</_>
    <_>
      419. 3.11207001e+002 69576.</_>
    <_>
      254. 2.72621002e+002 35760.</_>
    <_>
      303. 2.78743988e+002 51295.</_>
    <_>
      253. 2.60385986e+002 33871.</_>
    <_>
      259. 2.55001999e+002 34538.</_>
    <_>
      244. 2.60346008e+002 2.99925000e+004</_>
    <_>
      246. 2.51072006e+002 30570.</_>
    <_>
      191. 2.51406006e+002 27353.</_>
    <_>
      246. 3.10304993e+002 64222.</_>
    <_>
      143. 2.49322998e+002 20696.</_>
    <_>
      166. 2.49722000e+002 2.17785000e+004</_>
    <_>
      121. 2.33574005e+002 16433.</_>
    <_>
      118. 2.41350006e+002 1.50125000e+004</_>
    <_>
      130. 2.36718994e+002 16003.</_>
    <_>
      93. 2.29296997e+002 1.42535000e+004</_>
    <_>
      98. 2.26921005e+002 1.49455000e+004</_>
    <_>
      131. 2.73911987e+002 2.26355000e+004</_>
    <_>
      176. 2.71891998e+002 2.35135000e+004</_>
    <_>
      128. 2.88480011e+002 2.39615000e+004</_>
    <_>
      159. 2.86247986e+002 23585.</_>
    <_>
      204. 2.84487000e+002 3.07435000e+004</_>
    <_>
      194. 2.75182007e+002 30873.</_>
    <_>
      190. 2.81468994e+002 32365.</_>
    <_>
      164. 2.74351990e+002 3.21215000e+004</_>
    <_>
      179. 2.82307007e+002 32994.</_>
    <_>
      180. 2.87626007e+002 3.49855000e+004</_>
    <_>
      175. 2.93429993e+002 34279.</_>
    <_>
      201. 2.91596008e+002 3.56835000e+004</_>
    <_>
      270. 2.97893005e+002 39688.</_>
    <_>
      214. 2.97397003e+002 4.18895000e+004</_>
    <_>
      294. 2.94308014e+002 46854.</_>
    <_>
      273. 2.93471008e+002 4.29625000e+004</_>
    <_>
      237. 2.97860992e+002 47069.</_>
    <_>
      238. 2.99447998e+002 4.35185000e+004</_>
    <_>
      247. 3.02274994e+002 42926.</_>
    <_>
      228. 2.96971008e+002 49088.</_>
    <_>
      297. 3.05497986e+002 5.08035000e+004</_>
    <_>
      322. 3.15062988e+002 5.44735000e+004</_>
    <_>
      293. 3.09845001e+002 5.62845000e+004</_>
    <_>
      288. 3.15571014e+002 54940.</_>
    <_>
      329. 3.08730011e+002 55289.</_>
    <_>
      364. 3.12476990e+002 5.59815000e+004</_>
    <_>
      322. 3.07122009e+002 5.32175000e+004</_>
    <_>
      326. 3.08730011e+002 5.33145000e+004</_>
    <_>
      431. 3.27341003e+002 65154.</_>
    <_>
      362. 3.11970001e+002 57701.</_>
    <_>
      412. 3.31730011e+002 60707.</_>
    <_>
      334. 3.28721985e+002 62778.</_>
    <_>
      429. 3.28963989e+002 6.47245000e+004</_>
    <_>
      344. 3.33479004e+002 59879.</_>
    <_>
      378. 3.40895996e+002 61729.</_>
    <_>
      335. 3.33653992e+002 5.67095000e+004</_>
    <_>
      476. 3.54226990e+002 69088.</_>
    <_>
      370. 3.53277008e+002 6.39295000e+004</_>
    <_>
      369. 3.51654999e+002 6.35165000e+004</_>
    <_>
      400. 3.54446991e+002 62522.</_>
    <_>
      395. 3.51654999e+002 63794.</_>
    <_>
      409. 3.64610992e+002 6.49905000e+004</_>
    <_>
      489. 3.68816010e+002 6.89685000e+004</_>
    <_>
      395. 3.55411011e+002 63044.</_>
    <_>
      374. 3.56069000e+002 69817.</_>
    <_>
      427. 3.67604004e+002 67633.</_>
    <_>
      518. 3.70217010e+002 72396.</_>
    <_>
      425. 3.66216003e+002 6.90405000e+004</_>
    <_>
      415. 3.68209015e+002 71347.</_>
    <_>
      452. 3.70217010e+002 77008.</_>
    <_>
      560. 3.84812988e+002 75868.</_>
    <_>
      403. 3.95257996e+002 74830.</_>
    <_>
      581. 3.99154999e+002 8.11985000e+004</_>
    <_>
      437. 3.86803986e+002 72775.</_>
    <_>
      565. 4.06311005e+002 8.37295000e+004</_>
    <_>
      407. 4.09795990e+002 6.99495000e+004</_>
    <_>
      600. 4.17062012e+002 8.39565000e+004</_>
    <_>
      433. 4.20213989e+002 81623.</_>
    <_>
      451. 4.27846985e+002 88971.</_>
    <_>
      621. 4.20424011e+002 8.56255000e+004</_>
    <_>
      34. 6.40440002e+002 4021.</_>
    <_>
      477. 4.28544006e+002 7.74855000e+004</_>
    <_>
      27. 6.42200012e+002 2420.</_>
    <_>
      436. 4.23040985e+002 76136.</_>
    <_>
      32. 6.51143982e+002 2842.</_>
    <_>
      424. 4.37744995e+002 70085.</_>
    <_>
      30. 6.57851990e+002 2.20750000e+003</_>
    <_>
      430. 4.39829010e+002 69182.</_>
    <_>
      25. 6.69955017e+002 2804.</_>
    <_>
      365. 4.86822998e+002 6.55165000e+004</_>
    <_>
      75. 2.95381012e+002 8.78350000e+003</_>
    <_>
      20. 6.83789978e+002 1.96450000e+003</_>
    <_>
      661. 4.66998993e+002 98399.</_>
    <_>
      464. 4.68721985e+002 8.56555000e+004</_>
    <_>
      24. 6.98010986e+002 2.47950000e+003</_>
    <_>
      422. 4.60483002e+002 8.26575000e+004</_>
    <_>
      15. 7.13487976e+002 1.82650000e+003</_>
    <_>
      9. 3.02951996e+002 495.</_>
    <_>
      459. 4.82996002e+002 9.72415000e+004</_>
    <_>
      24. 7.18780029e+002 3.12750000e+003</_>
    <_>
      11. 3.13165985e+002 543.</_>
    <_>
      450. 4.76102997e+002 73408.</_>
    <_>
      32. 7.28632019e+002 2.66550000e+003</_>
    <_>
      12. 3.15990997e+002 702.</_>
    <_>
      7. 2.61725006e+002 418.</_>
    <_>
      437. 4.72364990e+002 8.05105000e+004</_>
    <_>
      29. 7.26005981e+002 2.02950000e+003</_>
    <_>
      17. 3.02592010e+002 2.23050000e+003</_>
    <_>
      639. 4.87311005e+002 99120.</_>
    <_>
      28. 2.95203003e+002 3137.</_>
    <_>
      26. 7.43328003e+002 2.58550000e+003</_>
    <_>
      343. 5.35817993e+002 6.79155000e+004</_>
    <_>
      32. 3.00807007e+002 2.35550000e+003</_>
    <_>
      24. 7.61935974e+002 2.46550000e+003</_>
    <_>
      26. 3.02654999e+002 2.65250000e+003</_>
    <_>
      312. 5.75283997e+002 54587.</_>
    <_>
      34. 2.98411987e+002 2.43050000e+003</_>
    <_>
      50. 3.48209991e+002 8.90450000e+003</_>
    <_>
      29. 7.71572998e+002 2611.</_>
    <_>
      407. 5.22033997e+002 9.31235000e+004</_>
    <_>
      9. 5.42517029e+002 5.01500000e+002</_>
    <_>
      25. 7.69150024e+002 2441.</_>
    <_>
      17. 3.02852997e+002 1711.</_>
    <_>
      315. 5.99541016e+002 5.68565000e+004</_>
    <_>
      140. 3.66153015e+002 28640.</_>
    <_>
      26. 7.79937012e+002 2.31250000e+003</_>
    <_>
      573. 5.27713989e+002 93691.</_>
    <_>
      21. 7.90185974e+002 1.81350000e+003</_>
    <_>
      27. 3.19476013e+002 3.07650000e+003</_>
    <_>
      349. 5.68898010e+002 91129.</_>
    <_>
      13. 3.34833008e+002 1852.</_>
    <_>
      411. 6.02995972e+002 59995.</_>
    <_>
      197. 3.61885010e+002 2.73815000e+004</_>
    <_>
      270. 6.04357971e+002 5.38755000e+004</_>
    <_>
      6. 3.05654999e+002 445.</_>
    <_>
      10. 7.51729004e+002 9.43500000e+002</_>
    <_>
      31. 3.37125000e+002 2145.</_>
    <_>
      170. 6.53301025e+002 29512.</_>
    <_>
      56. 3.91601990e+002 1.58825000e+004</_>
    <_>
      17. 7.51323975e+002 1528.</_>
    <_>
      266. 6.12442017e+002 4.83185000e+004</_>
    <_>
      28. 3.25968994e+002 2892.</_>
    <_>
      35. 4.22522003e+002 5.01650000e+003</_>
    <_>
      11. 3.40424988e+002 1576.</_>
    <_>
      19. 7.58198975e+002 1.35750000e+003</_>
    <_>
      583. 5.35210022e+002 113651.</_>
    <_>
      281. 6.36616028e+002 56536.</_>
    <_>
      77. 3.87838013e+002 1.56935000e+004</_>
    <_>
      255. 6.28916992e+002 46634.</_>
    <_>
      22. 4.35230011e+002 2.99150000e+003</_>
    <_>
      8. 3.59606995e+002 1534.</_>
    <_>
      8. 2.96365997e+002 3.11500000e+002</_>
    <_>
      11. 3.67662994e+002 7.21500000e+002</_>
    <_>
      12. 7.88174988e+002 1139.</_>
    <_>
      7. 3.45403992e+002 4.61500000e+002</_>
    <_>
      428. 6.33286987e+002 5.36975000e+004</_>
    <_>
      172. 3.93914001e+002 27591.</_>
    <_>
      21. 7.92268005e+002 1772.</_>
    <_>
      159. 7.06612000e+002 2.08125000e+004</_>
    <_>
      99. 5.57724976e+002 1.69695000e+004</_>
    <_>
      29. 4.40572998e+002 3952.</_>
    <_>
      76. 3.80899994e+002 1.13245000e+004</_>
    <_>
      6. 7.86520020e+002 1.72500000e+002</_>
    <_>
      404. 6.64567017e+002 58457.</_>
    <_>
      27. 3.60554993e+002 1.86150000e+003</_>
    <_>
      99. 3.76649994e+002 13660.</_>
    <_>
      26. 4.66177002e+002 2.38650000e+003</_>
    <_>
      132. 7.28512024e+002 2.45235000e+004</_>
    <_>
      81. 5.92838013e+002 1.35955000e+004</_>
    <_>
      15. 3.44703003e+002 2860.</_>
    <_>
      25. 4.28739990e+002 5.24650000e+003</_>
    <_>
      14. 3.66493011e+002 2.74650000e+003</_>
    <_>
      392. 6.61226990e+002 64942.</_>
    <_>
      137. 3.96080994e+002 23728.</_>
    <_>
      183. 6.93065979e+002 4.50685000e+004</_>
    <_>
      89. 4.46480988e+002 2.24665000e+004</_>
    <_>
      6. 3.87092010e+002 4.44500000e+002</_>
    <_>
      380. 6.70585022e+002 59560.</_>
    <_>
      31. 3.65936005e+002 4047.</_>
    <_>
      273. 6.36528992e+002 67417.</_>
    <_>
      11. 8.11739990e+002 760.</_>
    <_>
      11. 3.40898987e+002 1008.</_>
    <_>
      9. 3.74237000e+002 8.30500000e+002</_>
    <_>
      276. 6.12390015e+002 84085.</_>
    <_>
      6. 3.52330994e+002 539.</_>
    <_>
      489. 6.01119995e+002 9.49335000e+004</_>
    <_>
      8. 4.85123993e+002 460.</_>
    <_>
      218. 6.62338013e+002 60404.</_>
    <_>
      16. 3.67179993e+002 2544.</_>
    <_>
      7. 3.88515015e+002 1167.</_>
    <_>
      493. 6.01041016e+002 9.67345000e+004</_>
    <_>
      222. 6.46866028e+002 66126.</_>
    <_>
      13. 3.95419006e+002 1597.</_>
    <_>
      303. 6.99552002e+002 56157.</_>
    <_>
      7. 4.64583008e+002 3.61500000e+002</_>
    <_>
      162. 6.95434021e+002 5.22115000e+004</_>
    <_>
      33. 3.77773987e+002 9.18550000e+003</_>
    <_>
      304. 7.00783997e+002 5.20005000e+004</_>
    <_>
      155. 7.05062012e+002 4.74305000e+004</_>
    <_>
      21. 4.23058014e+002 4.99750000e+003</_>
    <_>
      24. 3.81703003e+002 2752.</_>
    <_>
      154. 6.92867004e+002 4.52655000e+004</_>
    <_>
      10. 4.01122986e+002 2.11050000e+003</_>
    <_>
      23. 3.86463013e+002 2.61950000e+003</_>
    <_>
      147. 6.99739014e+002 4.20995000e+004</_>
    <_>
      36. 3.91635010e+002 7589.</_>
    <_>
      162. 7.10348999e+002 41477.</_>
    <_>
      15. 4.18306000e+002 3247.</_>
    <_>
      8. 3.88576996e+002 1.03850000e+003</_>
    <_>
      152. 7.04557007e+002 45474.</_>
    <_>
      12. 4.32119995e+002 2971.</_>
    <_>
      222. 7.21552002e+002 3.12945000e+004</_>
    <_>
      100. 4.06444000e+002 14573.</_>
    <_>
      10. 7.93789001e+002 9.25500000e+002</_>
    <_>
      92. 7.10742004e+002 24845.</_>
    <_>
      30. 6.30202026e+002 4.72450000e+003</_>
    <_>
      65. 7.53760010e+002 12882.</_>
    <_>
      7. 3.99571991e+002 8.86500000e+002</_>
    <_>
      7. 7.91081970e+002 292.</_>
    <_>
      109. 7.03414978e+002 2.20905000e+004</_>
    <_>
      9. 4.46816986e+002 1946.</_>
    <_>
      22. 3.94391998e+002 3547.</_>
    <_>
      6. 7.96010986e+002 3.85500000e+002</_>
    <_>
      125. 7.03314026e+002 2.79895000e+004</_>
    <_>
      21. 4.07967010e+002 5.36050000e+003</_>
    <_>
      224. 7.14973022e+002 30604.</_>
    <_>
      99. 4.10231995e+002 1.47995000e+004</_>
    <_>
      122. 7.11732971e+002 24230.</_>
    <_>
      35. 4.06864014e+002 6792.</_>
    <_>
      115. 7.27671021e+002 2.33145000e+004</_>
    <_>
      16. 4.04821014e+002 5710.</_>
    <_>
      119. 7.05239014e+002 24645.</_>
    <_>
      26. 4.19934998e+002 6.45050000e+003</_>
    <_>
      62. 7.57617004e+002 11132.</_>
    <_>
      22. 6.34945984e+002 4384.</_>
    <_>
      6. 4.11029999e+002 557.</_>
    <_>
      213. 7.26857971e+002 2.74695000e+004</_>
    <_>
      86. 4.23391998e+002 11864.</_>
    <_>
      8. 4.85726013e+002 4.48500000e+002</_>
    <_>
      111. 7.35231018e+002 1.81495000e+004</_>
    <_>
      22. 4.12044006e+002 5.20150000e+003</_>
    <_>
      8. 4.66259003e+002 1.14350000e+003</_>
    <_>
      108. 7.46320007e+002 21819.</_>
    <_>
      22. 4.11389008e+002 2692.</_>
    <_>
      79. 7.31955994e+002 1.95065000e+004</_>
    <_>
      194. 7.51335022e+002 2.02885000e+004</_>
    <_>
      79. 4.22019012e+002 1.14375000e+004</_>
    <_>
      22. 4.09308014e+002 2652.</_>
    <_>
      98. 7.46234009e+002 15148.</_>
    <_>
      7. 4.57665009e+002 4.95500000e+002</_>
    <_>
      158. 7.51851013e+002 20939.</_>
    <_>
      59. 4.44694000e+002 1.17025000e+004</_>
    <_>
      25. 4.26549988e+002 6.58450000e+003</_>
    <_>
      23. 4.26358002e+002 5.67850000e+003</_>
    <_>
      35. 4.31559998e+002 7.81550000e+003</_>
    <_>
      10. 4.35660004e+002 1.09250000e+003</_>
    <_>
      80. 4.39182007e+002 1.27795000e+004</_>
    <_>
      64. 7.72005981e+002 8.76550000e+003</_>
    <_>
      61. 7.68338013e+002 8239.</_>
    <_>
      54. 7.53908997e+002 7.96350000e+003</_>
    <_>
      59. 7.55794006e+002 9846.</_>
    <_>
      70. 7.47054016e+002 1.49095000e+004</_>
    <_>
      60. 7.35440002e+002 10674.</_>
    <_>
      67. 7.47909973e+002 1.09875000e+004</_>
    <_>
      77. 7.46198975e+002 1.33325000e+004</_>
    <_>
      67. 7.45505005e+002 12349.</_>
    <_>
      62. 7.49632996e+002 14210.</_>
    <_>
      67. 7.46877014e+002 1.65455000e+004</_>
    <_>
      144. 7.50656006e+002 1.62805000e+004</_>
    <_>
      65. 7.52536987e+002 1.49295000e+004</_>
    <_>
      58. 7.53432983e+002 2.27235000e+004</_>
    <_>
      85. 7.45848022e+002 18020.</_>
    <_>
      88. 7.41223022e+002 1.94855000e+004</_>
    <_>
      63. 7.29414001e+002 1.58605000e+004</_>
    <_>
      62. 7.49632996e+002 1.99855000e+004</_>
    <_>
      87. 7.29745972e+002 1.80635000e+004</_>
    <_>
      96. 7.29937012e+002 18198.</_>
    <_>
      93. 7.32362000e+002 17778.</_>
    <_>
      76. 7.36431030e+002 1.94665000e+004</_>
    <_>
      81. 7.36416016e+002 1.98385000e+004</_>
    <_>
      82. 7.28190002e+002 16428.</_>
    <_>
      87. 7.30789001e+002 1.97835000e+004</_>
    <_>
      102. 6.96328003e+002 2.36725000e+004</_>
    <_>
      115. 7.17721985e+002 24559.</_>
    <_>
      124. 7.11921997e+002 22455.</_>
    <_>
      138. 7.04911011e+002 2.54695000e+004</_>
    <_>
      107. 7.04382019e+002 25162.</_>
    <_>
      114. 6.94726013e+002 34892.</_>
    <_>
      140. 6.74570007e+002 29183.</_>
    <_>
      114. 6.96419006e+002 2.77835000e+004</_>
    <_>
      246. 6.97338013e+002 31844.</_>
    <_>
      150. 6.80650024e+002 3.24655000e+004</_>
    <_>
      145. 6.79523987e+002 28093.</_>
    <_>
      195. 6.58169006e+002 31323.</_>
    <_>
      306. 6.78955994e+002 3.90605000e+004</_>
    <_>
      226. 6.44916016e+002 35057.</_>
    <_>
      197. 6.42702026e+002 38918.</_>
    <_>
      368. 6.54598999e+002 4.70975000e+004</_>
    <_>
      204. 6.11929993e+002 3.91185000e+004</_>
    <_>
      242. 5.76846985e+002 4.54525000e+004</_>
    <_>
      265. 6.02656006e+002 5.11655000e+004</_>
    <_>
      276. 5.86002991e+002 4.81985000e+004</_>
    <_>
      289. 5.78619995e+002 5.89345000e+004</_>
    <_>
      285. 5.83432983e+002 5.63155000e+004</_>
    <_>
      284. 5.76056030e+002 68379.</_>
    <_>
      457. 595. 6.43745000e+004</_>
    <_>
      374. 5.43182983e+002 62971.</_>
    <_>
      524. 5.60533020e+002 73716.</_>
    <_>
      432. 5.38187012e+002 69255.</_>
    <_>
      272. 6.85093018e+002 37039.</_>
    <_>
      466. 5.32132996e+002 7.25675000e+004</_>
    <_>
      408. 5.55367004e+002 62703.</_>
    <_>
      52. 3.05472992e+002 5319.</_>
    <_>
      577. 5.39114014e+002 90945.</_>
    <_>
      473. 5.67218994e+002 64728.</_>
    <_>
      76. 2.73541992e+002 10300.</_>
    <_>
      580. 5.60265991e+002 76493.</_>
    <_>
      55. 2.64622009e+002 6866.</_>
    <_>
      494. 5.64606995e+002 80845.</_>
    <_>
      20. 2.15205002e+002 2.11850000e+003</_>
    <_>
      478. 5.44424011e+002 77997.</_>
    <_>
      590. 5.35051025e+002 91523.</_>
    <_>
      657. 5.21791016e+002 94660.</_>
    <_>
      609. 4.97548004e+002 104735.</_>
    <_>
      709. 4.94498993e+002 108225.</_>
    <_>
      616. 5.06424988e+002 101388.</_>
    <_>
      538. 5.49130981e+002 70689.</_>
    <_>
      517. 5.31783997e+002 7.78095000e+004</_>
    <_>
      95. 2.56195007e+002 1.21455000e+004</_>
    <_>
      619. 4.95480988e+002 94395.</_>
    <_>
      578. 5.12659973e+002 81729.</_>
    <_>
      570. 4.87575989e+002 9.69065000e+004</_>
    <_>
      667. 4.63440002e+002 9.51525000e+004</_>
    <_>
      616. 4.59837006e+002 9.67225000e+004</_>
    <_>
      641. 4.48360992e+002 101759.</_>
    <_>
      675. 4.44144012e+002 101933.</_></support_vectors>
  <decision_functions>
    <_>
      <sv_count>1608</sv_count>
      <rho>-6.6077892335918769e+000</rho>
      <alpha>
        -9.9899999999999967e-001 -5. -4.9999999999999956e-001 -5.
        8.7399999999999967e-001 -5. 8.7399999999999967e-001
        8.7399999999999967e-001 8.7349999999999994e-001 -5.
        8.7399999999999967e-001 8.7399999999999967e-001
        8.7399999999999967e-001 8.7399999999999967e-001
        8.7399999999999967e-001 -5. 8.7349999999999994e-001 -5. -5.
        8.7349999999999994e-001 -5. 8.7349999999999994e-001 -5.
        8.7349999999999994e-001 -5. -5. 8.7399999999999967e-001
        -4.1245000000000003e+000 -5. 3.2490000000000006e+000
        3.2490000000000006e+000 -5. 3.7490000000000006e+000
        3.7490000000000006e+000 3.7490000000000006e+000
        -3.2490000000000006e+000 -5. -2.2490000000000001e+000 -5. 5. -5.
        -4.9999999999999956e-001 5. -4.9999999999999956e-001
        -4.9999999999999956e-001 5. -5. 5. -5. 5. -5.
        4.2490000000000006e+000 -3.2490000000000006e+000 5. -5. 5. -5.
        -9.9899999999999967e-001 -3.2490000000000006e+000 -5.
        2.2490000000000001e+000 -3.2490000000000006e+000 -5.
        -3.6245000000000003e+000 5. -5. 1.7490000000000001e+000 -5. 5.
        -5. 1.7490000000000001e+000 1.2489999999999997e+000 5.
        2.7490000000000006e+000 5. 2.7490000000000006e+000
        1.2489999999999997e+000 -5. 5. 3.7490000000000006e+000
        1.7490000000000001e+000 5. -4.1245000000000003e+000
        8.7349999999999994e-001 2.2490000000000001e+000
        2.9990000000000006e+000 8.7399999999999967e-001 -5. 5. -5. 5.
        -5. -2.9989999905944074e+000 -5. 5. 1.4989999999999997e+000 5.
        2.4990000000000001e+000 1.9990000000000001e+000 -5.
        2.4990000000000001e+000 1.4989999999999997e+000 -5. -5.
        1.4989999999999997e+000 -4.1245000000000003e+000 -5. -5.
        3.7490000000000006e+000 -5. -5. 5. -5. 2.9990000000000006e+000
        -5. -5. -5. -5. 1.4989999999999997e+000 -4.6245000000000003e+000
        -5. 5. -4.6245000000000003e+000 3.4990000000000006e+000
        -4.1245000000000003e+000 -5. -2.7490000000000001e+000
        -4.1245000000000003e+000 -5. -5. -4.1245000000000003e+000 -5.
        -4.6245000000000003e+000 5. -3.6245000000000003e+000
        3.7490000000000006e+000 -3.2490000000000006e+000 -5.
        3.4990000000000006e+000 -3.2490000000000006e+000 -5. 5.
        -1.7490000000000001e+000 8.7399999999999967e-001
        -9.9899999999999967e-001 -2.2490000000000001e+000
        -3.6245000000000003e+000 -2.7490000000000001e+000
        4.7489999999999553e+000 -4.9999999999999956e-001
        4.2490000000000006e+000 -4.9999999999999956e-001
        -4.6245000000000003e+000 -2.7490000000000001e+000 -5.
        3.7490000000000006e+000 4.2490000000000006e+000
        3.7490000000000006e+000 -4.9999999999999956e-001
        -4.7489999060339034e+000 2.9990000000000006e+000
        1.4989999999999997e+000 -4.4995001404036419e+000
        -2.7490000000000001e+000 4.2490000000000006e+000
        4.2490000000000006e+000 4.2490000000000006e+000 5.
        3.4990000000000006e+000 -4.1245000000000003e+000
        -4.1245000000000003e+000 -5. 5. 2.9990000000000006e+000
        -4.9999999999999956e-001 5. 5. -3.4969999771287208e+000
        -4.1245000000000003e+000 5. 5. 5. 8.7399999999999967e-001
        -3.9994999937303022e+000 5. 5. 5. 3.7490000000000006e+000 5.
        -4.9949985959634891e-001 1.4989999999999997e+000 5.
        -3.2490000000000006e+000 -1.7490000000000001e+000 5. 5.
        -3.4989999998268093e+000 4.2490000000000006e+000 5.
        4.2489999999999455e+000 5. -4.9999999999999956e-001 5.
        -9.9899999999999967e-001 4.2484616860930000e+000
        -2.7490000000000001e+000 1.2480779335756522e+000
        -4.9999999999999956e-001 -5. 4.4959997473207114e+000 -5.
        -3.2490000000000006e+000 3.4990000000000006e+000
        -4.1245000000000003e+000 4.4954999999999936e+000
        2.9990000000000006e+000 -5. 5. -5. -4.1245000000000003e+000
        -3.2490000000000006e+000 5. 1.4989999999999997e+000 -5.
        4.2981806600094030e-001 5. -4.6245000000000003e+000
        2.4990000000000001e+000 3.7490000000000006e+000
        -4.4994999999999763e+000 -4.6245000000000003e+000
        -3.2490000000000006e+000 -5. 5. 5. -3.6245000000000003e+000 5.
        -2.7490000000000001e+000 5. -2.7490000000000001e+000
        4.4905939870774638e+000 -2.2489999999999992e+000
        3.4990000000000006e+000 5. 5. 2.4990000000000001e+000
        -4.7485746631248045e+000 -5. -4.9999999999999956e-001
        2.9989999999999970e+000 1.4989999999999997e+000
        -4.2484616860930000e+000 -5. -4.9999999999999956e-001 -5.
        2.9989999999999934e+000 2.9989999999999442e+000
        -4.1245000000000003e+000 8.7399999999999967e-001
        -1.7490000000000001e+000 2.9989999999999162e+000
        -1.9990000000000001e+000 1.4989999999999997e+000
        1.4989999999999997e+000 2.9989999999769417e+000
        1.4989999999999997e+000 -4.9999999999999956e-001
        4.3740000000000006e+000 -3.9994999998653049e+000
        4.3740000000000006e+000 4.7489999999997909e+000 5.
        1.4989999999999997e+000 -5. 1.4989999999999997e+000
        4.3740000000000006e+000 1.4989999999999997e+000 5.
        4.3740000000000006e+000 2.4990000000000001e+000
        -4.1245000000000003e+000 4.3740000000000006e+000
        -4.9999999999999956e-001 4.7489999999612369e+000 -5.
        -4.9999999999999956e-001 2.4990000000000001e+000
        1.4989999999999997e+000 -5. 4.3740000000000006e+000
        -4.9999999999999956e-001 4.7489999980099427e+000
        -1.9990000000000001e+000 3.4990000000000006e+000
        -2.7490000000000001e+000 3.7490000000000006e+000
        8.7399999999999967e-001 -5. 4.3740000000000006e+000
        4.3740000000000006e+000 -5. -5. -5. 3.4990000000000006e+000 -5.
        -5. -5. -4.7489999980099427e+000 -5. 4.7489999979919961e+000
        -3.2490000000000006e+000 -3.6245000000000003e+000
        4.7489999958654208e+000 3.4989999999999997e+000 -5. -5.
        -1.7490000000000001e+000 -4.6245000000000003e+000
        4.7489999060339034e+000 -4.6245000000000003e+000
        1.9990000000000001e+000 4.7489993668290449e+000
        1.4989999999999997e+000 4.7489929048198061e+000
        -4.9999999999999956e-001 -4.9999999999999956e-001
        4.7487457488098013e+000 -4.6245000000000003e+000
        -3.2490000000000006e+000 -3.2490000000000006e+000
        -4.9999999999999956e-001 5. -4.6245000000294612e+000
        -2.9989999999999442e+000 -2.9989999999999934e+000
        -4.5000000000000000e+000 1.9990000000000001e+000 5.
        4.7485746631248045e+000 -4.5000000000000000e+000
        -4.9999999999999956e-001 4.7476213642114313e+000
        -4.5000000000000000e+000 -2.7490000000000001e+000
        -4.7448559536025865e+000 -4.5000000000000000e+000
        1.9990000000000001e+000 5. -4.5000000000000000e+000 5.
        -4.5000000000000000e+000 3.4989999999992611e+000
        -3.2490000000000006e+000 -4.7489999999612369e+000
        -4.6225364277830172e+000 -4.5000000000000000e+000
        -1.7490000000000001e+000 5. -4.5000000000000000e+000 5. -5.
        -4.5000000000000000e+000 5. 2.4990000000000001e+000
        -4.5000000000000000e+000 4.7448559536025865e+000
        -1.2489999999622658e+000 -1.7490000000000001e+000
        4.7391839031372225e+000 -4.7476213642114313e+000
        1.4989999999999997e+000 5. -4.9999999999999956e-001
        3.4989999998268093e+000 -4.5000000000000000e+000
        -3.3260725040422416e+000 -4.5000000000000000e+000 5.
        -4.9999999999999956e-001 -4.5000000000000000e+000
        -4.5000000000000000e+000 5. -1.7490000000000001e+000
        -4.5000000000000000e+000 -1.1820203007235794e+000
        4.7176117023229605e+000 5. 8.7399999999999967e-001 -5.
        1.9990000000000001e+000 5. 5. -4.5000000000000000e+000 5.
        1.9990000000000001e+000 -1.7490000000000001e+000
        4.3740000000000006e+000 -4.5000000000000000e+000 -5.
        1.4989999999999997e+000 5. 1.4989999999999997e+000 5.
        -1.1426060220003129e+000 -5. -5. 4.3740000000000006e+000 5.
        -4.5000000000000000e+000 -4.9999999999999956e-001
        4.7045551186203802e+000 -4.5000000000000000e+000
        -4.9999999999999956e-001 -3.2490000000000006e+000
        -4.5000000000000000e+000 4.8740000000000006e+000 5.
        -4.9999999999999956e-001 4.3740000000000006e+000
        -4.5000000000000000e+000 -1.1306370953501168e+000
        4.3740000000000006e+000 -4.5000000000000000e+000
        -4.9999999999999956e-001 -4.5000000000000000e+000
        4.3740000000000006e+000 1.9990000000000001e+000
        4.3740000000000006e+000 1.9990000000000001e+000
        4.8740000000000006e+000 1.9990000000000001e+000
        4.8740000000000006e+000 1.4989999999999997e+000
        4.8740000000000006e+000 2.4990000000000001e+000 5.
        8.7399999999999967e-001 4.8740000000000006e+000
        1.9990000000000001e+000 4.8740000000000006e+000
        1.9990000000000001e+000 4.3740000000000006e+000
        1.4989999999999997e+000 -5. 4.8740000000000006e+000
        1.4989999999999997e+000 2.9989999905944074e+000
        3.4989999982336442e+000 2.4990000000000001e+000
        3.4989999343645479e+000 1.4989999999999997e+000
        2.9989444791425504e+000 1.4989999999999997e+000
        2.4990000000000001e+000 2.4990000000000001e+000
        3.4969999771287208e+000 2.4990000000000001e+000
        1.4989999999999997e+000 2.4990000000000001e+000
        2.4990000000000001e+000 2.4990000000000001e+000
        2.7490000000000001e+000 5. 2.4990000000000001e+000
        -1.7490000000000001e+000 -4.6060887139496485e+000
        2.4990000000000001e+000 1.9990000000000001e+000 5. 5. 5. 5. 5.
        5. 1.4989999999999997e+000 -1.9990000000000001e+000 5. 5. 5. 5.
        5. 1.4989999999999997e+000 4.8740000000000006e+000
        4.3740000000000006e+000 4.3740000000000006e+000
        4.3740000000000006e+000 4.3740000000000006e+000
        3.3260725040422416e+000 1.4989999999999997e+000 -5. -5. -5. -5.
        -5. -5. -5. -5. -5. -5. -5. -5. -4.5000000000000000e+000
        -4.5000000000000000e+000 -4.5000000000000000e+000
        -4.5000000000000000e+000 -4.5000000000000000e+000
        -4.5000000000000000e+000 -4.6241377877224235e+000
        -4.5000000000000000e+000 -4.5000000000000000e+000
        -4.5000000000000000e+000 -4.5000000000000000e+000
        -4.5000000000000000e+000 -5. -4.5000000000000000e+000
        -4.5000000000000000e+000 -4.5000000000000000e+000
        -4.7489999979919961e+000 -4.5000000000000000e+000 -5.
        -4.5000000000000000e+000 -4.6244990979214595e+000
        -4.5000000000000000e+000 -3.6245000000000003e+000
        -4.5000000000000000e+000 -4.4519390978292606e+000 -5. -5.
        -4.7489993668290449e+000 -3.6245000000000003e+000 -5. -5. -5.
        -5. -4.5000000000000000e+000 -5. -5. -4.6224017075062527e+000
        -5. -5. -4.5000000000000000e+000 -5. -5.
        -3.6245000000000003e+000 -5. -5. -5. -4.5000000000000000e+000
        -5. -5. -5. -5. -3.6245000000000003e+000 -5.
        -4.7045551186203802e+000 -5. -5. -5. -5. -5. -5.
        -3.6245000000000003e+000 -5. -5. -5. -5. -5. -5. -5. -5.
        -3.4989999999999997e+000 -5. -3.6245000000000003e+000 -5. -5.
        -5. -5. -4.1245000000000003e+000 -5. -5.
        -2.7490000000000001e+000 -4.9999999999999956e-001 -5. -5. -5.
        -1.7490000000000001e+000 -5. -5. -2.7490000000000001e+000 -5.
        -5. -1.7490000000000001e+000 -5. -1.4989999999999997e+000 -5.
        -5. -2.7490000000000001e+000 1.4989999999999997e+000 -5. -5. -5.
        1.4989999999999997e+000 2.4990000000000001e+000
        1.4989999999999997e+000 2.4990000000000001e+000
        2.7490000000000001e+000 1.4989999999999997e+000
        3.7490000000000006e+000 2.4990000000000001e+000
        1.9990000000000001e+000 3.2490000000000006e+000
        3.2490000000000006e+000 3.7490000000000006e+000
        3.2490000000000006e+000 3.7490000000000006e+000 5. 5. 5. 5.
        4.3740000000000006e+000 -2.7490000000000001e+000 5. 5. 5. 5.
        -2.7490000000000001e+000 3.7490000000000006e+000
        -2.7490000000000001e+000 3.7490000000000006e+000
        -2.7490000000000001e+000 2.7490000000000001e+000 5.
        -2.7490000000000001e+000 4.3740000000000006e+000 5. 5. 5. 5. 5.
        -2.7490000000000001e+000 3.7490000000000006e+000 5.
        -2.4989999999999681e+000 -2.7490000000000001e+000
        -2.7490000000000001e+000 4.3740000000000006e+000 5. 5. 5.
        -3.6245000000000003e+000 2.4990000000000001e+000 -5. 5. 5. 5. 5.
        -4.1245000000000003e+000 -5. -1.4989999999999997e+000 -5.
        -2.7490000000000001e+000 5. -5. 5. -3.2490000000000006e+000
        3.2490000000000006e+000 5. -5. -3.6245000000000003e+000
        -1.9990000000000001e+000 -3.6245000000000003e+000 5.
        4.8740000000000006e+000 5. 5. -2.7490000000000001e+000
        -3.2490000000000006e+000 -3.2490000000000006e+000 5.
        -4.1245000000000003e+000 -5. 5. -5. -4.7487457488098013e+000
        1.4989999999999997e+000 -3.2490000000000006e+000 5.
        4.8740000000000006e+000 -5. -3.6245000000000025e+000
        1.4989999999999997e+000 -2.7490000000000001e+000
        -4.5000000000000000e+000 4.3740000000000006e+000 -5.
        -3.6245000000000025e+000 -5. 8.7399999999999967e-001
        -4.7489929048198061e+000 5. -4.6244999999999941e+000 -5.
        4.3740000000000006e+000 -5. -4.5000000000000000e+000
        2.7490000000000001e+000 -5. -3.2490000000000006e+000
        -1.9990000000000001e+000 -3.6245000000000216e+000 -5.
        -4.1245000000000216e+000 1.4989999999999992e+000
        -3.6245000000294612e+000 -5. -4.7391839031372225e+000
        8.7399999999999967e-001 -3.6245000000294612e+000 -5.
        -4.2489999999999455e+000 8.7349999999999994e-001 -5.
        -3.6245000000427057e+000 -1.4989999999999997e+000
        -3.6245003006928473e+000 -1.9990000000000001e+000 -5.
        -3.6245003006928473e+000 -5. 3.2490000000000006e+000 -5.
        -1.4989999999999997e+000 -3.6246207374258592e+000 -5.
        3.2490000000000006e+000 -5. -5. 3.2490000000000006e+000 -5.
        -3.4989999999992611e+000 -1.1251994308312487e+000
        -1.4989999999999997e+000 -4.5000000000000000e+000 -5.
        8.7399999999999967e-001 -3.6246207374258592e+000
        -3.4994720009264229e+000 -5. -3.6251545240723280e+000
        -1.1251883651598678e+000 -5. -4.1251545240723280e+000
        -2.9989444791425504e+000 -1.1251545240723275e+000
        -3.4994999984544943e+000 -4.5000000000000027e+000 -5.
        -4.1251883651598682e+000 -3.4989999982336442e+000
        -1.9990000000000001e+000 -5. -3.6251883651598686e+000
        2.4990000000000001e+000 -3.6251994308312496e+000 -5.
        -3.2490000000000006e+000 5. -4.9999999999999956e-001
        3.2490000000000006e+000 -3.6251994308312496e+000
        -2.4990000000000001e+000 5. -3.6306370953501181e+000
        -2.4990000000000001e+000 -4.9999999999999956e-001
        -3.6306370953501181e+000 -3.6426060220003142e+000
        3.2490000000000006e+000 -3.6426060220003142e+000
        2.4990000000000001e+000 -3.6697431375980383e+000
        -4.9999999999999956e-001 -1.1246207374258588e+000
        -2.4990000000000001e+000 -3.7490000000000006e+000
        -2.9989999999769417e+000 -5. -3.7490000000000006e+000
        3.2490000000000006e+000 -1.4989999999999997e+000
        2.4990000000000001e+000 -3.7490000000000006e+000
        -2.4990000000000001e+000 2.4990000000000001e+000
        -3.7490000000000006e+000 -1.9990000000000001e+000 -5.
        -3.7490000000000006e+000 1.4989999999999997e+000
        -2.4990000000000001e+000 1.4989999999999997e+000
        -3.7490000000000006e+000 -2.4990000000000001e+000
        1.4989999999999997e+000 -3.7490000000000006e+000
        -1.1245003006928465e+000 -3.7490000000000006e+000
        2.4990000000000001e+000 -1.9990000000000001e+000
        1.4989999999999997e+000 -3.7490000000000006e+000
        -3.2490000000000006e+000 1.9990000000000001e+000
        -3.7490000000000006e+000 -3.7490000000000006e+000
        2.7490000000000001e+000 -3.7490000000000006e+000
        -3.7490000000000006e+000 -5. -4.1697431375980383e+000
        1.9990000000000001e+000 -1.4989999999999997e+000
        8.7399999999999967e-001 -4.1820203007235808e+000
        -2.4990000000000001e+000 -5. 1.4989999999999997e+000
        -4.5000000000000000e+000 -3.7490000000000006e+000
        1.4989999999999997e+000 -4.5000000000000000e+000
        -2.4990000000000001e+000 2.4990000000000001e+000
        -4.5000000000000000e+000 -4.5000000000000000e+000
        2.7490000000000001e+000 -5. -4.5000000000000000e+000
        2.4990000000000001e+000 -3.2490000000000006e+000 -5.
        1.4989999999999997e+000 -5. -3.7490000000000006e+000 -5.
        2.7490000000000001e+000 -5. -3.7490000000000006e+000 -5.
        2.7490000000000001e+000 -1.4989999999999997e+000 -5.
        2.7490000000000001e+000 -1.4989999999999997e+000
        2.7490000000000001e+000 -1.4989999999999997e+000
        -4.6224349045203965e+000 1.9990000000000001e+000
        -2.9989999999999970e+000 -4.7176117023229605e+000
        2.7490000000000001e+000 -2.4990000000000001e+000
        2.7490000000000001e+000 -1.4989999999999997e+000 -5.
        3.2490000000000006e+000 -2.4990000000000001e+000 -5. -5.
        3.2490000000000006e+000 -1.6239999999999983e+000 -5. -5.
        -4.6244999999999363e+000 3.7490000000000006e+000
        -1.4989999999999997e+000 -4.6820203007235808e+000
        -2.4990000000000001e+000 2.7490000000000001e+000
        -4.9999999999999956e-001 1.9990000000000001e+000
        -2.4988144256760281e+000 -5. 2.7490000000000001e+000
        -4.7486926445252182e+000 -1.4989999999999997e+000
        -2.4900466648337374e+000 2.7490000000000001e+000
        -4.9159398707746327e-001 -4.7486926445252182e+000
        -1.4989999999999997e+000 1.9990000000000001e+000
        -1.4989999999999997e+000 -4.7489999999622672e+000
        -2.4990000000000001e+000 1.9990000000000001e+000
        -1.4989999999999997e+000 1.9990000000000001e+000
        -1.4989999999999997e+000 -5. -5. -1.4989999999999997e+000
        1.9990000000000001e+000 -1.4989999999999997e+000
        -1.4989999999999997e+000 -4.7489999999622672e+000
        1.9990000000000001e+000 -1.4989999999999997e+000
        -1.4989999999999997e+000 8.7399999999999967e-001
        -4.9999999999999956e-001 8.7399999999999967e-001
        -1.4989999999999997e+000 -3.7490000000000006e+000
        -3.7490000000000006e+000 -1.4989999999999997e+000
        -1.9990000000000001e+000 -5. -2.4990000000000001e+000 -5.
        -1.4989999999999997e+000 -4.9999999999999956e-001
        -1.4989999999999997e+000 -4.4994999999999852e+000
        -1.4989999999999997e+000 -1.4989999999999997e+000
        -1.4989999999999997e+000 -5. -1.4989999999999997e+000
        -2.4990000000000001e+000 -5. -4.9999999999999956e-001
        8.7349999999999994e-001 -1.4989999999999997e+000
        -4.9999999999999956e-001 -4.9999999999999956e-001
        -1.4989999999999997e+000 -1.4989999999999997e+000
        -1.4989999999999997e+000 -1.1245000000000211e+000
        -1.4989999999999997e+000 -1.4989999999999997e+000
        -1.9990000000000001e+000 8.7399999999999922e-001
        -1.9990000000000001e+000 -1.1245000000000016e+000
        -1.4989999999999997e+000 -2.4990000000000001e+000
        -1.4989999999999997e+000 -4.7489999999999988e+000
        -2.4990000000000001e+000 -4.7489999999999988e+000
        -3.2490000000000006e+000 -1.4989999999999997e+000
        -2.4990000000000001e+000 -4.9999999999999956e-001
        2.4990000000000001e+000 -2.4990000000000001e+000
        -1.4989999999999997e+000 -4.9999999999999956e-001
        -3.2490000000000006e+000 3.2490000000000006e+000
        -4.9999999999999956e-001 -3.2490000000000006e+000
        -1.4989999999999997e+000 -1.4989999999999997e+000
        3.2490000000000006e+000 -3.7490000000000006e+000
        -1.4989999999999997e+000 -1.4989999999999997e+000
